and 0.000458 0.003085 0.001604 -0.000757 0.003548 0.003621 0.005578 0.002988 0.002708 0.005939 -9e-06 -0.001419 -0.006221 -0.002054 0.000576 0.004133 0.002549 -0.002963 -0.000251 0.000853 0.002066 0.004673 -0.001148 0.004175 -0.002913 -0.00122 -0.002805 0.002599 -0.005126 -0.006208 0.004395 0.003683 -0.0037 0.004837 0.005607 0.000687 0.004193 0.005774 0.00595 -0.004444 0.00372 0.001128 0.002634 -0.000862 -0.003154 0.004213 0.005969 0.00517 0.003811 0.005564 0.004684 -0.00283 -0.004945 0.002252 -0.001967 0.004807 0.000537 -0.00293 -0.005861 -0.003735 0.001812 0.004511 8.3e-05 0.001487 0.00207 -0.003218 -0.005969 0.004848 0.004816 -0.006072 0.0029 0.004256 0.001635 -0.005092 -0.00188 -0.00525 -0.006182 0.0042 -0.001134 -0.001763
rating 0.003881 -0.003686 0.005407 -0.003682 0.00283 -0.000785 -0.003207 -0.001446 6.4e-05 -0.001992 -0.005624 0.005049 -0.003632 0.001285 -0.00349 0.003894 -0.001465 -0.00063 -0.00155 -0.004802 -0.002348 0.002474 -0.000901 0.002566 0.003545 0.0001 -0.000813 0.00563 -0.00128 0.00445 0.005652 0.001517 -5.2e-05 -0.001248 0.00197 -0.003268 0.002033 -6.2e-05 0.00459 0.00226 0.003854 -0.002296 -0.005222 0.005032 0.003991 0.004444 -0.004072 -0.004054 -0.003752 -0.002672 0.003087 0.003167 0.005874 0.005184 0.002123 0.00314 -0.005978 -0.000481 -8.7e-05 0.000768 -0.001808 -0.002741 -0.000848 0.001439 -0.003438 -0.005517 0.000262 -0.002993 -0.005626 0.005545 0.000816 0.000487 -0.002378 0.003712 0.00033 -0.003559 -0.00231 -0.006128 -0.000209 -0.00251
would 0.003474 0.003051 -0.004853 -0.000209 -0.005867 -0.004295 -0.005887 0.003163 -0.001969 0.003602 0.004375 -0.003369 6.2e-05 -0.005679 -0.00608 0.002968 -0.00295 -0.001462 0.0029 -0.005967 -0.0014 -0.00592 0.002301 -0.001877 0.004567 -0.006432 -0.002756 0.004116 0.004803 0.005314 0.000318 0.000142 0.003093 0.004431 0.003112 -0.005033 -0.001645 0.00119 0.003784 -0.003083 0.002419 0.005406 -0.003877 0.000881 -6.8e-05 -0.004737 -0.001473 0.004626 -0.005075 0.004643 0.004051 0.00216 0.004746 0.006141 0.003127 -0.001263 0.001241 0.001978 0.001982 0.000717 0.001048 0.00434 0.003084 0.000448 -0.005248 -0.004844 0.000218 -0.001869 -0.002157 0.0011 0.003176 -0.005148 -0.004666 0.001401 -0.004112 0.000856 -0.006045 -0.003461 0.002687 -0.005526
right -0.000955 -0.000163 -0.004066 0.002799 -2.7e-05 0.005565 0.001983 -0.002283 0.004148 0.003742 -0.000507 -0.000208 -0.006103 0.000387 -0.003904 0.003099 -0.002779 0.004618 -0.002525 8.6e-05 -0.004793 0.00544 0.005957 0.002843 -0.003742 0.005364 0.004324 0.003827 -0.002276 0.003163 -0.004963 -0.002752 0.003478 0.00201 0.001456 0.000336 0.002214 0.005308 0.00571 -0.003257 -0.0059 -0.003174 -0.000878 0.005274 -0.003404 -0.00172 0.00256 0.002303 0.005038 0.001743 0.000464 -0.002847 -0.002162 -0.005591 -0.004931 -0.001125 0.006194 0.002474 -0.00597 0.002205 -0.00376 -0.001507 0.003317 -0.001257 0.002753 -0.001071 -0.000413 -0.000106 -0.002531 -0.006094 -0.004154 1.9e-05 -0.003722 -0.000702 -0.002982 0.002514 0.006175 -0.000277 0.005321 0.002655
shot -0.004102 -0.005792 0.005327 0.00276 0.002856 -0.005956 -0.001086 0.004686 -0.004412 -0.000863 0.003182 -0.004644 0.002665 -0.005503 -0.004373 -0.001923 0.003378 0.002632 0.00532 -0.005251 0.005604 0.005157 -0.002253 0.004795 -0.004211 0.003052 -0.001992 -0.000696 -0.005931 -0.004798 0.005799 -0.000893 0.0043 -0.003136 -0.000797 -0.004803 -0.001604 -0.00604 0.003699 0.001204 -0.002342 5e-05 -0.004136 -0.005263 -0.0056 -0.00276 0.00333 -0.002631 0.002166 -0.003555 -0.003905 -0.000832 0.005932 -0.00103 -0.002093 0.003469 0.003741 -0.004946 -0.004041 0.003844 0.004774 0.004154 -0.005659 0.001557 -0.000475 0.001893 -0.001443 -0.003774 0.004436 0.004532 0.000533 0.001766 0.006124 -0.005708 -0.002737 -0.001167 -0.005504 -0.006226 0.00196 -0.003811
give -0.003304 -0.003753 0.001167 0.001554 0.000305 -0.00152 0.000947 0.003295 -0.002268 0.001707 -0.003141 -0.000607 0.003693 0.000209 0.00059 -0.005296 0.002592 -0.003245 -0.005802 -0.004803 -0.006015 -0.000233 0.002924 -0.000285 0.004307 0.000458 0.003177 0.005354 0.005478 -0.004535 -0.003421 0.002091 -0.002135 0.002441 0.000668 -0.003531 0.001851 0.000696 -0.000819 -0.001148 0.003689 -0.002436 0.00239 -0.005105 -0.001025 -0.002459 -0.000886 0.006238 0.00539 0.00036 0.003304 0.006013 -0.002202 0.002648 -0.005574 -0.003727 -0.005823 0.005165 -0.005382 -0.006048 0.005981 -0.003605 -0.003271 0.002332 0.004525 0.001097 -0.005843 0.001076 0.002835 -0.001618 -0.00332 0.003234 -0.00357 -0.001962 0.001229 -0.00068 -0.003243 -1.1e-05 -0.003706 0.004592
is 0.000842 0.001347 0.004488 0.002387 -0.000108 -0.003555 -0.005809 0.005035 0.001649 -0.001475 -0.002344 0.002567 -0.005681 -0.001424 0.000108 -0.000532 0.00021 -0.000335 -0.005779 -0.002953 5.8e-05 0.000671 -0.005708 0.002892 0.00261 -0.005462 0.00527 0.002866 -0.006309 0.000993 -0.005275 0.004493 0.005615 -0.00356 0.003479 0.002315 -0.005173 -0.001933 0.004388 0.002939 0.000935 -8.7e-05 0.002155 0.005509 -0.000454 -0.004419 -0.000893 0.002629 0.004321 -0.005594 0.003529 0.0008 -0.000384 -0.00595 0.001093 -0.0027 -0.00372 0.003631 -0.004964 0.005293 -0.004037 0.002806 0.000496 0.003303 0.003361 -0.005694 0.004827 0.00194 -0.002447 0.001173 0.0052 0.003313 0.000638 -0.001307 -0.005758 0.001537 -0.002515 -0.001021 0.00497 -0.006161
try -0.005832 0.00148 0.005479 -0.001504 0.000355 -0.004636 -3.8e-05 -0.005066 0.000158 -0.005365 -0.00513 -0.001078 -0.002218 -0.005365 -0.005994 -0.004442 0.000782 0.004994 0.001484 -0.004395 0.000261 0.006009 0.005687 0.003084 0.002206 -0.004841 -0.004262 0.002194 -0.00589 0.001366 -0.004527 1.4e-05 0.000424 -0.00074 -0.000193 0.003116 -0.001283 -0.005442 0.005142 0.000381 0.000886 -0.000965 -0.00514 0.003308 -0.004015 -0.001573 0.000606 -0.005302 -0.002559 0.004823 0.002846 0.000819 0.004382 -0.006096 -0.000827 -0.000783 0.001077 0.00348 -0.003713 -0.000356 0.000442 0.002546 0.001911 -0.004805 0.004779 0.005664 -0.004458 0.00401 -0.001802 -0.000269 0.000639 -0.001733 -0.00079 -0.002733 0.000132 0.004488 0.001138 0.005114 -0.003081 0.001568
am 0.004454 -5.1e-05 0.0002 -0.003953 -0.000647 0.005212 0.002021 -0.003877 -0.0062 -0.001687 0.00197 -0.006305 -0.002292 -0.00321 0.002038 -0.001134 0.002211 0.002618 0.001718 -0.005686 -0.004944 -0.00332 -0.003979 0.005476 0.002045 0.005951 0.003851 -0.002682 -0.001865 -0.00337 -0.002686 -0.002117 -0.003652 0.005689 0.003006 0.001184 -0.002777 -0.0027 0.003246 -0.002778 -0.004874 -0.003478 -0.001773 0.005331 -0.002124 0.004059 -0.002309 0.003943 -0.005703 0.002989 -0.00213 0.002333 -0.000731 -0.004918 -0.002024 -0.000543 0.001707 -0.001188 -0.002252 -0.002759 -0.002324 0.003015 0.002351 -0.005712 0.002661 -0.000178 0.00022 -0.004666 0.004371 -0.000865 -0.000793 -0.004627 -0.003649 -0.003292 0.0015 -0.00545 0.004642 -0.00582 -0.003217 0.002075
it 0.004363 0.004826 0.000338 0.000387 0.004132 -0.004919 -0.005375 -0.002442 -0.00594 0.00059 0.004705 0.001648 -0.001242 0.002549 0.005531 0.002441 -0.000332 -0.004835 -0.005677 -0.00167 0.005457 -0.000681 0.003236 0.004321 -0.000442 -0.006466 0.00445 0.002381 0.006005 0.004529 2.8e-05 -0.005097 -0.004105 -0.000239 0.001542 -0.005499 0.001199 -0.005164 0.005912 -0.005319 -0.002401 0.002464 -0.004949 0.000607 0.000587 0.001396 -0.000623 0.005761 0.002945 0.002245 0.004383 -0.002749 0.003416 -0.000808 -0.006327 -0.000251 0.002661 -0.001747 -0.001067 0.001592 0.001722 0.004843 -0.004101 -0.003159 -0.006209 0.005028 -0.004667 -0.004643 0.003027 0.002119 -0.004074 0.005198 -0.002994 0.002036 -0.000424 -0.000883 0.001013 0.001741 0.005536 -0.000142
SLOT_NAME 0.002972 -0.004616 -0.004176 0.005731 -0.003616 0.003959 0.004812 0.000737 0.001783 -0.00142 -0.002309 -0.004051 0.000417 -0.005718 -0.005019 -0.00246 -0.00133 -0.000145 0.005297 -0.003115 0.003572 -0.001479 -0.003131 0.003221 0.002886 -0.003303 0.005197 0.000602 0.003089 0.004766 -0.002365 -0.005515 0.0041 0.000235 -0.006178 -0.003163 -0.000224 -0.002931 -0.000479 0.002615 0.002232 -0.004059 0.003276 -0.002818 0.002899 -0.006244 0.004322 0.00506 -0.004855 0.005981 0.002446 0.002575 -0.002437 0.002391 -9.1e-05 0.003547 0.00239 0.004157 -4e-06 0.002796 0.002525 0.002658 0.001795 -0.003143 -0.001988 -0.004632 0.002628 -0.001958 0.002052 -0.002689 0.000282 0.005114 -0.002634 0.00537 -0.004317 -0.00544 0.000751 0.001656 -0.004148 -0.004443
area 0.004684 0.001392 0.004141 -0.006228 -0.002229 -0.00406 -0.004776 -0.000464 0.006128 -0.003248 -0.004528 5.6e-05 0.005213 0.001943 9e-05 -0.001441 -0.004771 -0.00411 -0.002605 -0.000437 0.004983 0.000798 0.000166 0.003799 -0.001108 0.001133 -0.004169 0.004195 -0.00428 0.004992 0.003882 0.001022 0.006307 -0.004754 0.005774 -0.001534 0.005054 0.003476 -0.002737 -0.00297 -0.002941 -0.004598 0.003343 0.005153 0.005674 -4.7e-05 -0.003005 -0.003515 0.002592 -0.000663 -0.002167 0.004582 -0.003978 -0.000101 0.002287 -0.005674 -0.004884 0.001083 0.004383 -0.00336 -0.002311 0.000404 0.004289 0.006183 -0.006146 -0.00495 0.004479 0.00141 -0.006117 0.001165 -0.002638 0.005973 -0.005475 0.003207 0.00291 -0.002874 0.001624 0.006096 0.001941 0.002385
serving 0.00628 -0.005206 0.004297 -0.00132 -0.003275 -0.000714 0.004069 -0.004323 -0.005553 -0.002427 -0.004816 0.000507 5.5e-05 -0.004476 -0.002423 -0.00455 -0.005493 -0.001058 -0.000286 -0.005889 -0.003255 0.001018 -0.004147 0.005423 -0.002778 -0.005326 0.002504 0.004815 0.001727 -0.003591 0.004437 0.002474 -0.001715 0.002474 0.003742 0.000339 0.001705 -0.000971 -0.003478 -0.003905 0.000713 -0.000533 -0.003853 -0.000278 -0.004532 0.000936 -0.00046 0.001703 -0.001698 -0.004678 0.000496 -0.004531 -0.001559 0.00082 0.000715 -0.001423 0.004378 0.0033 -0.004691 -0.00618 -0.004332 -0.002706 0.003866 -0.00141 0.001883 -0.00409 -0.002435 -0.000487 -0.004359 0.005709 0.005384 0.002961 0.005506 0.002487 -0.006005 -0.004297 0.000947 -0.004791 0.00473 0.003884
are -0.000284 0.005189 -0.003697 -0.002909 -0.001922 -0.002324 0.003148 0.004343 -0.006085 0.005296 0.001011 -0.005221 0.002661 -0.003637 -0.003832 -0.00623 -0.003592 0.002903 0.004058 0.002797 -0.003268 0.001828 0.001365 -0.000221 0.006391 0.00388 0.001238 0.006111 0.004853 -0.005204 -0.003232 -0.00098 -0.001247 -0.003738 -0.005442 -0.001367 -0.001989 -0.003106 0.002748 0.000681 -0.004479 -0.004261 -1.9e-05 -0.003754 0.005734 -0.004456 -0.000251 -0.00377 -0.004466 0.001531 -0.005433 -0.001409 -0.004974 0.00114 -0.001388 0.00129 0.004423 0.000243 0.003997 0.004802 -0.004929 0.004994 -0.005279 0.002229 0.002428 -0.003247 -0.000545 -0.00392 -0.000198 0.004179 -0.003218 -0.001841 0.002157 -0.002697 -0.006449 -0.001063 0.003026 0.001401 0.001096 0.004074
want -0.004955 -0.001118 0.000145 -0.006099 -0.003162 -0.001696 -3.4e-05 0.000292 -0.002688 -0.004839 0.000692 -0.003016 0.000621 0.001428 0.006064 0.002129 0.001454 -0.00269 0.003683 -0.000208 0.000878 0.003052 0.006056 -0.003406 -0.002187 -0.002543 4.9e-05 0.005711 0.004798 -0.001407 0.005637 0.002701 -0.003801 0.002511 -0.002116 0.000792 0.006156 0.000767 0.002539 0.00038 -0.003804 0.005021 0.004192 -0.003012 -0.001511 -0.00134 -0.005701 -0.005909 -0.004794 0.004287 -0.001145 -0.001366 0.004824 -0.000488 0.005782 -0.002261 0.004068 -0.002774 0.002746 -0.005018 0.005498 0.005958 0.003779 -0.00593 -0.003424 0.005403 0.000979 -0.004951 0.003584 0.004363 0.003968 -0.004309 -0.004098 0.005108 0.00568 0.003546 0.001328 -0.000491 0.000843 0.002757
in 0.004174 0.005624 0.002652 -0.00132 0.004007 0.003334 -0.005421 -0.006108 0.000251 0.00517 0.005979 -0.001001 0.000696 -0.0047 -0.001997 -0.004007 0.0049 0.0017 0.000822 0.004006 0.00121 0.005325 -0.00286 0.002782 2.6e-05 -0.001349 0.000162 0.00015 -0.003965 -0.001757 -0.000395 0.002695 -0.004492 -0.002217 0.004164 -0.002957 -0.004548 0.003211 -0.001407 -0.003406 0.001592 0.002674 0.005213 0.00231 -0.006069 0.002117 0.001936 -0.002548 -0.001011 0.004064 -0.004284 0.000201 -2e-06 0.002254 0.001975 0.001899 -0.00016 0.000793 0.000373 -0.004237 -0.005326 -0.006069 0.002607 -0.003523 0.000588 0.001131 -0.001242 0.005355 0.005796 0.002897 -0.002184 0.00115 -0.002239 0.003337 -0.006081 0.002695 -0.003624 0.003535 0.004896 -0.006136
go 0.004376 0.000492 0.000906 0.003325 0.001601 0.000958 -0.004034 -0.002531 -0.004872 0.004101 -0.002664 -0.000153 0.005534 0.003131 -0.001997 -0.003533 -0.004904 0.004693 -0.002926 0.003646 -0.005645 -0.005654 -0.000818 0.004603 -0.004186 0.005426 0.001152 -0.005301 -0.003592 0.004098 0.001216 0.003855 0.001344 0.003407 0.001534 -0.00086 -0.001975 -0.006322 -0.000942 0.004183 -0.003734 -0.000845 0.005935 -0.002501 -0.002335 -0.005071 0.004313 0.000697 0.004478 0.003903 -0.001439 -0.005866 0.002078 -0.004803 -0.001556 0.000771 -0.003749 -0.001282 -0.005667 -0.003481 0.001827 -0.000534 0.00308 -0.003342 -0.001238 -0.005459 0.003207 0.001188 -0.00356 -0.005281 -0.000474 0.001052 -0.000716 0.005707 -0.00405 0.002708 0.001742 -0.002583 -0.003789 0.000384
find 0.006268 0.004794 -0.003388 0.001303 0.001793 0.005911 0.004563 -0.000428 0.004066 0.001239 0.003769 -0.001468 0.004351 0.002712 -0.002228 -0.002588 -0.005808 -0.003832 0.00459 0.002701 -0.001124 0.003064 2.9e-05 0.005825 0.005206 0.000746 -0.005185 0.006233 0.004258 0.000488 -0.00376 -0.002024 0.001926 0.004917 -0.000306 -0.002117 0.002958 -0.000907 -0.001738 0.004322 -0.001909 -0.001278 0.000623 -0.002676 -0.003378 0.001972 -0.00494 0.005682 -0.002472 -0.00546 0.005474 0.005424 0.002747 -0.001716 0.004586 -0.001246 0.005688 0.004945 -0.001909 0.005929 0.003208 0.001401 0.002268 0.000551 0.000388 -0.000144 0.004103 -0.005114 0.004555 -0.001261 0.001787 0.000793 0.002185 0.002845 -0.003668 -0.001239 -0.002164 0.00013 -0.004766 -0.005357
SLOT_ADDRESS -0.004822 0.005753 -0.002137 -0.000238 -0.003807 0.006001 -0.004943 0.001506 -0.005412 -0.000316 -0.000972 0.005038 -0.002413 0.002575 0.005291 0.003616 -0.003154 -0.002635 0.006209 0.000374 -0.003325 -0.000719 -0.003545 -0.003275 0.005986 0.000172 -0.004907 -0.002439 -0.005019 -0.005322 -0.003548 0.000312 0.00042 -0.00021 -0.000945 0.004099 -0.003366 0.002569 0.00127 0.005317 0.004389 0.001143 0.001838 0.004663 -0.002733 -9.8e-05 -0.001365 0.004072 0.000692 -0.003807 0.003711 -0.002246 0.005732 0.000846 -0.002409 -0.000139 0.005313 0.001362 -0.000317 0.001396 -0.00407 -0.004884 0.005864 -0.002393 -0.00068 -0.003345 -0.004842 0.00486 0.002039 0.002842 -0.005223 -0.003643 -0.004059 0.00511 -0.002125 -0.001219 0.000555 -0.002778 -0.004854 0.003154
what -0.004173 0.00424 0.003168 0.003127 -0.003899 0.002455 0.000309 -0.004707 0.00247 0.005483 -0.004825 0.003542 0.000352 0.005451 -0.001953 0.00418 0.002582 0.004889 0.003628 0.005787 0.003765 -0.00514 0.000471 -0.003833 -0.004983 0.003905 -0.001891 0.002738 -0.001278 0.004473 -0.00158 -0.004449 -0.005014 -0.005813 0.005231 0.003675 -0.004876 0.00167 -0.002232 -0.005468 0.000858 -0.003797 -0.005032 -0.003147 0.001705 -0.001696 0.002662 0.004292 -0.003354 -0.005388 -0.000761 0.000715 0.0041 0.003037 0.003294 -0.005056 0.006343 0.005973 -0.005243 0.002191 0.004323 0.000246 0.001039 -0.002983 0.005476 -0.00115 -0.001016 0.001948 -0.004144 0.005805 -0.005301 0.001391 0.000618 -0.001342 0.003111 -0.002878 0.005595 0.004768 -0.002461 -0.004161
any -0.003356 0.001732 -0.003412 -0.006238 -0.005783 0.003042 0.000863 -0.000256 -0.005597 -0.000563 -0.002815 0.005051 0.005501 -0.001502 -0.001241 0.00127 0.004204 -0.003008 -0.001989 0.002478 -0.003153 -0.003467 0.00367 -0.004511 0.002603 -0.005537 -0.003013 -0.005888 -0.001883 0.003747 -0.005119 0.001241 0.006002 -0.002572 -0.003457 -0.001541 0.002151 -0.004838 0.001603 -0.004941 -0.003497 0.001022 -0.001693 -0.004758 0.000696 0.005008 6.6e-05 -0.004174 0.000944 0.001204 0.005019 0.004369 0.000672 -0.002062 0.00032 -0.002539 0.002878 0.005066 -0.002635 -0.002302 0.001349 0.003326 -0.003213 -0.005594 0.000108 -0.005571 -0.001463 -0.004963 -0.004598 -4.1e-05 -0.004581 0.005615 0.004202 -0.003925 -0.004383 -0.003402 0.005136 0.002689 0.002951 0.001737
for 0.00237 -0.004964 0.004139 0.002626 -0.002491 -0.002325 0.001026 0.001253 0.006189 0.003806 -0.002239 -0.005694 -0.00262 0.000981 -0.001427 -0.005624 -0.004581 0.001321 0.005004 -0.00451 -0.004735 0.000755 -0.002598 0.005561 -0.003258 -0.002091 -0.002951 0.002454 -0.005556 0.00086 0.004881 0.000796 -0.001775 0.000652 -0.002082 0.000835 0.004818 -0.005485 -0.002424 -0.005498 -0.003054 0.005455 -0.004918 0.00264 0.003844 -0.005202 -0.002104 -0.004483 -0.004115 0.004645 -0.005524 0.005412 0.000103 0.004211 -0.004001 -0.00067 0.001418 0.001949 0.004647 -0.004088 0.001038 0.004131 0.002055 -0.000315 0.005464 0.00341 -0.002355 0.002852 0.006235 0.002847 -0.005513 0.00379 0.001367 0.00552 -0.003187 -0.001331 -9.3e-05 0.001988 -0.000693 -0.006125
confirm -0.002429 0.00375 -0.001749 0.005695 0.00153 -0.001842 0.0053 0.003371 0.0037 -0.001358 -0.003911 -0.000596 -0.002921 -0.000797 0.003406 0.001707 0.001298 0.0053 -0.005336 0.005394 -0.001701 -0.003048 -0.002137 -0.005408 -0.003122 0.003753 -0.001933 -0.00496 -0.001082 -0.003346 0.002769 -0.00592 -0.002575 -0.001045 0.005825 0.002886 -0.001748 -0.00549 0.004768 0.002159 -0.002126 -0.005896 -0.001363 0.003673 0.002766 0.002726 -0.004394 0.000519 -0.002522 0.003584 -0.001594 -0.001332 0.002922 0.003404 0.004465 0.000831 -0.00416 0.005768 -0.002687 0.002568 -0.001058 -0.003064 -0.002705 0.002761 0.002848 -0.001713 0.000123 0.002948 -0.004117 -0.001512 0.002213 0.004977 -0.005804 -0.004439 0.003058 2e-05 0.001159 -0.000768 -0.000105 -0.005258
giving 0.003419 0.001066 0.002251 -0.004664 0.005798 0.000558 0.002754 0.001579 0.001715 0.001267 0.00585 3.7e-05 -0.00049 0.002268 -0.003257 0.003062 -0.001214 0.003251 0.000325 0.000608 0.001239 -0.003097 0.002212 0.004829 0.001444 -0.00363 0.005674 -0.000334 -0.003903 -0.004424 0.003093 0.005961 -0.004885 0.005755 0.004224 0.005953 0.004603 -0.006356 -0.003818 -0.00633 0.001675 0.004448 0.002758 0.000571 0.001875 -0.004598 0.002469 -0.00576 0.00091 0.001734 -0.003772 -0.003678 0.00117 0.004616 -0.003871 0.000598 0.004159 0.003204 0.003529 -0.004023 0.003511 -0.0041 0.005597 -0.004685 -0.002138 -0.004007 0.003303 -0.004709 -0.000407 -0.003411 0.002217 -0.005132 -0.000825 0.002807 0.004103 0.004895 -0.003288 0.001877 0.001594 0.002075
there 0.000667 -0.005539 0.002471 -0.00431 -0.004407 -0.003332 0.003646 0.005484 -0.002433 0.003614 -0.002155 0.003329 0.002818 0.00421 -0.004213 -0.000982 -0.00293 0.002425 0.003549 0.001642 0.004424 -0.002073 -0.002078 -0.006072 0.001502 -0.002255 0.001342 0.000688 0.002347 -0.003792 0.000444 0.005359 -0.004234 0.004068 -0.001201 -0.001774 -0.005298 0.005409 -0.005099 0.002107 0.001066 -0.002811 0.002882 -0.005798 0.00208 0.003182 0.002615 -0.004703 -0.006141 0.002815 0.003666 -0.002804 -6.3e-05 -0.004584 -0.000506 -0.000589 -0.005806 0.003061 -0.005214 -0.001275 0.000631 -0.005048 0.00481 -0.002415 0.001929 0.000947 0.00098 0.004851 -0.00534 0.00621 -0.004004 0.003506 -0.001534 0.000387 0.005714 -0.000614 0.001279 -0.006146 0.000664 0.00064
when -0.001467 0.004786 0.005344 0.002932 0.002776 0.002217 0.00501 -0.00363 -0.001778 0.004346 -0.000803 -0.006185 -0.006081 0.000725 0.004548 0.004803 0.002898 -0.002254 -0.005654 -0.005096 -0.004879 -0.001575 0.000602 -0.00287 -0.000201 -0.001834 0.0002 0.000163 -0.003642 -0.002884 -0.006092 0.002966 -0.003118 -0.001636 -0.00542 0.005829 -0.001531 0.000243 0.000891 -0.003856 0.003607 -0.001562 -0.001554 -0.004492 0.003467 0.002486 -0.005951 -0.002344 0.001127 0.004358 -0.004948 0.0045 0.001162 -0.003231 0.005356 -0.001722 0.001697 -0.004131 -0.003542 0.004873 0.002443 0.001994 -0.000118 0.003095 0.005477 -0.005499 0.005741 0.002305 -0.004608 -0.004619 -0.00057 0.003557 -0.001237 0.000778 0.000215 -0.004979 0.000722 -0.002867 0.004859 -5.6e-05
, -0.001415 0.006033 0.000268 -0.001707 0.005005 0.004201 0.004921 -0.001125 0.00247 -0.002544 -0.003527 -0.001695 0.002852 -0.006475 0.003808 -0.006049 -0.002335 0.004983 -0.001767 0.002259 -0.003068 0.004459 0.002004 -0.001502 0.001303 -0.002763 -0.001706 -0.003232 0.002046 0.006218 0.002146 0.006194 -0.001113 0.006205 0.003673 0.003818 0.004958 -0.00158 0.004534 -0.005546 0.004726 0.000341 0.001979 0.002384 0.006118 -0.005006 0.003606 -0.000869 -0.001125 -0.004809 -0.005938 2e-06 0.003743 0.004205 -0.00349 -0.00112 -0.000239 0.003465 0.001636 -0.002104 -0.000989 -0.001747 -0.005451 -0.005211 -0.00284 -0.005829 -0.002563 -0.003172 -0.000476 -0.000428 -0.004627 0.000709 -0.002429 -0.000894 -0.004604 0.000775 -0.001003 -0.005919 0.000135 0.003014
. -0.001673 0.005079 0.00154 -0.00351 -0.000516 -0.00406 -0.005103 0.001849 -0.004437 -0.006061 -0.003501 0.000822 0.002477 -0.000404 0.003941 0.001234 -0.002733 0.006228 0.005142 0.003499 0.000812 0.000214 -0.005798 -0.003975 0.00408 0.001677 -0.005945 0.004102 0.000667 0.00451 -0.000828 -0.002307 -0.005532 -9e-05 -0.000879 -3.1e-05 -0.005253 0.004496 0.004517 -0.00295 0.003074 0.001112 -0.000283 0.004465 -0.000953 0.002133 0.002061 -0.005745 0.000559 0.003031 -0.003207 0.00112 0.00531 0.001428 0.002987 0.000741 0.001682 -0.000565 0.002628 0.005143 -0.004537 0.003078 -0.001004 0.004963 -0.004685 -0.001652 0.000963 -0.000884 0.005209 0.005058 0.002862 0.000989 0.004123 -0.005398 -0.004193 -0.000184 -0.004016 0.004708 0.005222 -0.00562
looking 0.000587 0.001062 0.002017 0.004894 -0.001182 -0.000822 0.005508 -0.003641 -0.005118 -0.003012 -0.003894 0.004325 0.000337 0.006012 -0.001479 -0.00486 0.000663 -0.00078 -0.001882 0.004658 -0.004566 0.00508 0.000344 -0.005225 0.002517 -0.00389 -0.000558 -0.003434 -0.001216 -0.002029 -0.004304 0.000162 -0.001563 0.006244 -0.004987 -0.002697 -0.005506 0.000389 -0.003598 -0.000893 -0.004094 -0.003721 -0.005808 -0.001819 -0.004052 0.00234 -0.001107 0.000763 -0.001212 0.000782 -7.1e-05 -0.002047 0.004493 -0.0031 -0.002235 -0.006142 -0.005259 -0.002203 -0.004302 0.00047 -0.005306 -0.003125 -0.003529 0.003922 0.003709 0.00021 -4.5e-05 -0.005065 0.005496 0.003511 0.004726 -0.000715 -0.002711 -0.001073 -0.001921 -8.8e-05 -0.002184 -0.003707 0.004809 -0.001811
food 0.006425 0.00328 -0.000157 0.001955 0.004512 0.002864 -0.002208 -0.001576 0.002829 0.001263 0.002852 0.000529 -0.003013 -0.005126 0.00134 -0.005766 0.000437 0.003064 1.1e-05 -2e-05 -0.004334 -0.000895 -0.003518 -0.00574 0.002699 -0.001424 0.000705 0.001218 -0.00602 0.003404 -0.00632 0.000699 0.0047 0.005824 0.00064 -0.003409 0.002558 0.002473 -0.001689 -0.003711 0.001395 0.004377 -0.004957 0.002745 -0.002974 -0.002341 -0.00086 -0.003215 -0.001508 -0.002066 -0.00172 -0.000623 0.002478 -0.001338 -0.004138 0.003507 0.006286 0.001923 0.005068 -0.00325 0.003148 0.002422 -0.002115 -0.003772 -0.00256 -0.000526 0.004479 -0.006063 -0.000628 0.005527 -0.00237 0.004024 0.003335 0.006109 -0.000963 0.004809 0.000276 -0.003872 0.00624 0.004135
interested -0.004375 0.003268 0.000232 0.002581 0.002156 -0.003943 0.002054 -0.003158 0.00203 -0.002974 0.001906 0.001728 0.001233 -0.006215 -0.003445 -0.003955 -0.003895 0.001652 -0.005922 0.000639 -0.006049 -0.002888 -0.004355 0.00582 0.003042 -0.006153 -0.004835 -0.005256 0.000374 0.003225 -0.004809 0.006276 -0.003454 0.004618 0.000744 0.003002 0.003462 0.004214 -0.002233 -0.000241 0.005515 0.000488 -0.00182 -0.004893 0.006203 -0.005233 0.003677 0.00089 -0.001214 0.000509 -0.004903 -0.002544 -0.000722 0.006015 -0.003525 0.004216 -0.000605 0.001719 0.001608 -0.004788 0.000805 -0.002695 -0.000537 0.002823 0.001421 -0.005627 -0.00201 0.003905 -0.002209 -0.001239 0.004358 0.002071 0.004345 0.005937 -0.001903 -0.004829 0.0054 0.004557 -0.000608 0.002422
stars 0.004844 -0.002329 0.00144 -0.001478 0.00129 0.005785 0.000157 0.000495 -0.003737 0.000284 0.005861 -0.003551 0.00154 0.002634 -0.005151 0.005159 -0.00524 -0.004603 -0.005744 0.001805 -0.00078 3.5e-05 -0.003569 0.003475 0.00485 0.002736 0.0019 0.00016 0.003778 -0.003061 -0.001036 -0.004892 -0.004451 0.000635 -0.004676 0.004317 0.004779 -0.001047 0.00156 -0.003502 -0.001329 0.000935 0.002728 0.003384 0.005849 0.00331 -0.001994 -0.004951 -0.002038 -0.005156 0.003845 -0.005891 -0.002208 0.000517 -0.002941 -0.003076 -0.005299 0.003716 0.003419 -7.8e-05 0.002225 -0.003051 0.002958 0.005392 0.002416 0.002579 -0.006005 0.005394 -0.004326 -0.004156 -0.005408 -0.005672 -0.001214 0.004111 -0.005862 0.002715 0.002456 -0.003192 0.002857 -0.000431
which -0.003535 0.004419 -0.005563 0.004887 0.006172 0.004235 -0.005335 -0.000591 -0.003342 0.004594 -0.006212 0.003872 -5.2e-05 0.003923 0.005502 0.002191 -0.000836 0.005889 0.006103 -0.004131 0.004116 -0.005042 0.001834 -0.001044 -0.004389 -8e-05 0.002344 -0.005192 0.00048 0.001669 0.003776 0.00305 0.000901 0.004467 0.005447 -0.001308 0.006107 0.000554 0.005951 -0.001184 0.002893 -0.003705 0.006184 0.001809 5.7e-05 0.003227 -0.001666 -0.004856 -0.004483 -0.002208 0.00418 0.002862 -0.003978 0.000653 0.0028 -0.005195 0.002761 0.00362 -0.001533 0.001362 0.000489 -0.002154 0.004081 0.005073 0.002678 -0.000421 0.005738 0.001237 -0.00156 -0.002398 -0.000263 0.005453 -0.005277 0.000527 0.005848 -0.005416 0.004725 -0.000625 -0.000808 0.002638
you 0.006273 -0.000207 -0.004918 0.005925 -0.000491 0.004323 -0.004748 -0.001199 0.006186 0.001827 0.000279 -0.004529 -0.002584 0.002996 -0.005604 -0.001986 -0.005129 -0.004651 -0.004836 0.004293 -0.006066 -0.001983 -0.004584 0.000581 -0.00485 -0.000722 -0.001914 -0.00347 0.002984 0.0019 0.002059 -0.000499 -0.005626 0.004194 -0.005367 0.001785 0.003198 0.001391 -0.005828 0.001377 -0.004306 -0.001468 0.001202 0.003029 -0.004446 0.002716 -0.001762 1.2e-05 0.005498 -0.004672 -0.004755 0.002657 0.004236 -0.001165 -0.003263 -0.005298 -0.003451 0.005842 -0.001596 -0.006071 -0.00611 0.004842 0.003232 -0.002189 0.003473 0.00031 0.004611 -0.005622 -0.005745 -3.5e-05 0.000128 -0.004385 -0.003001 0.003042 0.004104 -0.002485 0.005432 0.001412 0.002636 0.006229
: 0.000453 0.002137 -0.002814 0.004807 0.000669 0.003711 0.005404 0.000778 -0.001964 -0.000329 -0.001928 0.001545 -0.001309 0.003412 0.000913 0.00531 0.000916 -0.003519 -0.004113 -0.005485 -0.001634 0.001111 0.001398 0.006149 0.003622 0.00425 0.001728 -0.00433 -0.002295 -0.000316 0.001879 0.00238 -0.003547 0.003245 0.006198 0.004315 0.0011 -0.000979 0.00234 -0.000597 -0.003803 -0.001295 -0.001807 -0.00474 0.00025 -0.000609 -0.005081 0.001917 0.002989 -0.006105 -0.00028 -0.005712 0.003681 0.001158 0.000399 -0.000641 0.002846 0.00541 -0.004396 -0.003515 0.000847 -0.006051 -0.00428 -0.004303 -0.002903 -0.000419 0.000944 0.005287 -0.003323 -0.002874 0.000798 0.005864 0.003455 0.000752 0.000446 0.001648 -2.8e-05 0.00181 0.002982 0.003599
type 0.004579 -0.004057 0.000448 0.004215 -0.005945 0.005473 -0.001622 0.000835 0.005552 -0.00031 -0.005723 -0.004966 0.002101 -0.00511 0.001122 -0.003545 -0.000252 -0.004298 0.00399 -0.001594 -0.005352 -0.005409 -0.001296 -0.00376 -0.000417 0.002962 -6.3e-05 -0.003922 -0.001363 0.000481 0.001691 0.000461 -0.001698 0.004642 -0.002898 -0.001887 0.003662 -0.000339 0.004413 0.000174 -0.000556 0.002346 0.003845 0.005317 0.001126 -0.004776 0.003916 -0.001186 -0.003342 -0.001686 -0.0002 0.003736 0.002262 -0.003169 -0.005887 0.003171 -0.001055 -0.005443 -0.006163 0.003407 -0.001698 0.003037 -0.004363 0.000156 0.000672 -0.002884 0.003019 0.000274 0.001003 0.005539 0.006137 -0.002974 0.00061 -0.0028 -0.005527 -0.001018 -0.006044 -0.005269 0.002085 0.002255
? 0.002802 0.002269 0.005109 0.000311 -0.005993 0.004375 -0.002181 -0.004758 -0.002371 0.003515 -0.00443 -0.003362 -0.005719 -0.002957 0.004576 -0.004796 -0.003514 -0.001 0.002814 -0.001378 0.000303 -0.005607 4.1e-05 0.004355 0.002406 -0.006605 -0.006356 0.001119 0.00295 0.001566 0.000981 -0.002062 -0.001464 -0.002458 -0.004123 0.002582 -0.002935 -0.004412 0.003682 0.00448 -0.001237 -0.004526 0.002379 -0.002917 -0.003195 -0.005335 0.003771 -0.001196 0.005948 0.00234 -0.003116 -0.003425 -0.004298 0.005988 0.002429 -0.001825 0.002624 -0.004286 0.001434 -0.001525 0.002656 -0.00141 0.001692 -0.004545 -0.002536 -0.002313 -0.002788 -0.001789 -0.003571 0.001034 -0.002021 -9.4e-05 0.002305 0.00086 -0.006465 0.003877 -0.000973 0.000671 -0.001361 0.003996
SLOT_LOCATION -0.00348 0.0053 0.001578 -0.000506 0.004235 0.001293 -0.001056 0.003057 -0.003927 0.00364 0.002365 0.004644 0.00366 -0.005388 0.004263 0.001049 0.002847 -0.004882 0.005912 -0.001296 -0.003085 0.001046 0.004309 0.004353 -0.001778 0.004994 -0.0036 -0.004336 0.002251 -0.002811 0.003747 0.003451 -0.000693 0.002871 0.001036 0.003874 0.004297 -0.005862 0.00251 -2.3e-05 -0.004419 0.003714 0.004967 0.002627 -0.004312 -0.002946 0.000994 0.001034 -0.002441 -0.003515 0.00206 -0.002112 0.001071 0.004041 0.00545 0.00038 0.004225 -5.1e-05 -0.005458 0.003517 -0.00498 -0.0 -0.003593 -0.003343 0.000327 -0.001261 -0.004531 0.00544 0.000566 0.001958 0.000557 -0.004651 0.005058 0.002973 0.005424 0.004424 0.005513 0.004618 -0.00351 0.004441
good -0.001208 0.004459 0.001263 -0.001084 -0.004904 0.003418 -0.004149 -0.00548 0.004459 -0.000858 0.003599 0.005223 -8.6e-05 -7.8e-05 -0.005607 -0.002607 -0.0026 0.004214 0.001594 0.004478 0.003905 -0.005788 0.005789 0.003457 -0.005336 0.005485 0.00032 -0.001681 -0.004776 2.7e-05 -0.002963 -0.004789 0.002316 0.002597 0.004105 0.001017 0.001966 -0.004213 -0.003453 -0.003488 0.000418 -0.005179 -0.004319 0.004246 0.00419 -0.005527 0.001957 0.005866 -0.002912 -0.003079 0.002093 0.004131 -0.000232 0.006207 0.003093 0.002227 0.000618 -0.001561 0.001731 0.000232 -0.001637 -0.000745 -0.000873 -0.006038 0.002946 -0.000161 0.005258 -0.002331 0.002632 -0.006092 0.002394 -0.005014 0.002667 0.000691 -0.005779 -0.000435 -0.001881 0.003078 0.005129 0.005819
's 0.005273 -0.000224 0.003886 -0.005397 -0.00321 0.002307 0.002025 0.004717 -0.00575 -0.004036 0.004385 -0.00545 -0.000376 0.003651 -0.004226 0.00223 -0.003515 -0.002535 0.004656 0.001441 -0.004692 -0.001207 -0.000366 -0.002646 0.005077 -0.005268 -0.005456 -0.00471 -0.003789 0.005899 0.005636 0.002755 0.003671 0.005261 0.005863 -0.002953 0.00338 0.004946 -0.000394 0.005767 0.00021 -0.002439 -0.00219 0.006094 -0.00191 -0.004566 0.000291 -0.000279 0.000475 0.001787 0.000494 0.003617 -0.000907 -0.000248 0.005702 -0.00506 -0.000874 0.000807 -0.000676 -0.00328 9.3e-05 -0.005604 0.003789 0.003897 -0.003833 -0.000584 -0.002873 -0.000497 -0.002807 0.003421 6.1e-05 -0.002245 -0.000525 0.002705 0.00604 0.003476 -0.005805 0.005252 0.004036 -0.00419
to -8.3e-05 0.006142 -0.003184 -0.005913 -0.006549 0.00599 0.004206 -0.005393 -2e-05 -0.000267 -0.005469 -0.000897 0.00514 -0.006304 0.00509 0.004309 0.001351 -0.003135 -0.000751 0.000791 -0.005203 -0.005239 0.004288 0.001647 -0.001117 -0.003713 -0.002025 0.004 -0.000684 -0.003593 0.000848 0.004236 0.000407 -0.002868 -0.00485 0.003554 -0.004546 0.000601 0.005564 -0.003893 0.001599 -0.003185 -0.005091 -0.005222 -0.001949 -0.002383 -0.00286 -0.003878 -0.001873 -0.002992 0.001515 -0.005966 -0.003198 -0.005319 0.004695 -0.000123 -0.005271 0.002443 -0.000308 0.003736 -0.005155 -0.003847 0.005934 0.003364 -0.002457 -0.003338 -0.00084 -0.003923 0.004609 0.005012 -0.005646 -0.001554 -0.004741 0.004812 -0.00122 0.001977 0.002823 0.004336 -0.003162 0.00233
do 0.003168 0.004271 -0.005813 -0.003092 -0.003039 0.004785 -0.001256 0.000351 -0.000845 0.004881 -0.004119 0.002472 -0.00358 -0.004538 0.002411 -0.00383 0.005148 -0.001125 -0.005479 -0.001622 0.00344 -0.004918 -0.003899 -0.003821 -0.002516 0.001687 0.002178 0.003147 -2.2e-05 -0.000212 0.004557 -0.000203 0.005418 -0.003158 0.000414 0.001626 0.003997 -0.006223 0.005722 -0.00492 -0.003687 0.002627 0.003301 -0.003748 -0.004106 -0.006428 -0.000197 -0.002521 0.003528 -0.001893 0.004296 -0.004403 0.005586 0.000709 -0.001061 0.003069 -0.00283 -0.003698 -0.005065 0.004642 0.003454 -0.004123 0.002471 0.00408 -0.00591 0.00162 -0.006118 -0.006305 0.004952 0.00367 -0.002498 -0.00434 0.00061 -8.5e-05 -0.006051 0.003066 0.003078 0.003911 -0.004429 0.003912
that 0.001718 -0.004655 -0.00577 0.002781 0.005992 -0.003005 0.004385 0.000574 -0.005492 0.002543 0.003727 0.00436 -0.005157 -0.001827 -0.005308 -0.000374 0.004383 -0.005411 -0.002776 0.003182 -0.002134 0.002724 -0.001646 -0.002362 0.002283 -0.001346 0.001729 -3e-05 -0.000233 -0.001085 -0.001444 0.005321 0.00544 0.002748 -0.002011 -0.005269 0.00125 0.004535 0.004126 -0.001957 0.00493 -0.000665 0.002883 -0.000631 0.002893 0.003758 -0.005704 0.00504 0.005034 0.000148 0.005391 -0.00476 0.00341 -0.003051 0.005258 0.002736 -0.003242 -0.002141 -0.00353 -0.003096 0.002439 0.003121 0.001312 -0.000464 -0.0012 -0.000965 0.005399 -0.000569 -0.005616 -0.002625 -0.002786 0.005987 -0.003319 0.005175 -0.004011 0.002153 0.000877 -0.002989 0.002446 -0.003506
may -0.002337 -0.003056 -0.00309 -0.003145 0.003199 -0.000149 -0.004075 -0.002109 0.005994 0.002191 -0.001076 -0.00395 0.001704 0.002359 0.003395 -0.002458 -0.000852 -0.000756 0.005371 -0.001385 0.003433 -0.003346 -0.001358 0.004556 0.004258 0.004386 -0.003752 0.004042 0.004469 -0.00588 -0.001413 -0.00517 0.002048 0.006 -0.006019 0.006227 0.002624 0.001009 -0.004502 -0.004028 0.0006 0.002088 -0.000606 -0.003574 -0.000199 0.004768 0.004172 -0.002778 0.003774 0.000136 -0.00014 -0.001664 -0.006076 0.001066 0.00272 -0.002408 0.004331 0.001161 -0.005123 0.001412 -0.003757 0.005251 -0.004017 0.005572 0.003873 0.003803 -0.003412 0.001541 -0.000897 -0.001508 -0.001594 -0.003684 -0.000626 -0.003606 -0.003135 0.004549 -0.005933 -0.002581 0.004023 0.000919
prefer 0.00405 -0.00437 -0.001215 -0.005178 0.002733 -0.005435 0.000992 0.003339 -0.000256 -0.003622 0.00533 0.001417 -0.003338 -0.004964 0.005222 -0.001738 0.003081 -0.002671 0.002505 0.000196 0.00505 -0.002099 -0.004465 -0.001447 -0.003195 0.004164 0.006081 -0.005465 0.000552 0.006126 -0.004382 -0.004946 0.001354 0.005921 0.000582 -0.004472 0.005911 -0.002457 -0.00313 -0.004182 0.006229 -0.002661 0.000911 -0.005241 -0.000328 0.001322 0.004377 -0.000835 0.003975 -0.005966 -0.005705 0.001925 0.00281 0.000146 -0.004573 -0.004047 0.005073 -0.002691 -0.004905 -0.002819 -0.000976 -0.000956 -0.00438 0.003428 -0.00485 0.004544 -0.001264 0.003857 -0.000191 -0.001923 -0.005789 -0.003143 -0.004296 0.004928 0.002429 -0.003969 -0.00026 0.003813 -0.00259 -0.000765
great -0.005481 0.004594 -0.002751 -0.001053 -0.001666 -0.005002 0.00381 -0.005731 0.004614 0.000164 0.004195 0.001942 0.001815 -0.00356 0.002311 -0.002103 0.00565 -0.005897 0.002857 -0.001503 0.004127 -0.004739 0.00455 -0.000686 0.006088 0.001412 -0.00486 0.000745 -0.003804 0.00104 -0.003246 -0.001952 -0.006236 4.1e-05 0.001597 0.002797 -0.003923 -0.004033 -0.004437 -0.003754 -0.004042 -0.002787 -0.005063 -0.005957 0.002477 0.002703 0.002929 0.001843 -0.006264 -0.005709 -0.005065 0.000851 5.6e-05 -0.002519 -0.001137 -0.001633 -0.000356 0.004295 0.000699 -0.001055 -0.002726 -0.003875 0.005551 -0.001067 -0.002374 0.005698 0.003278 0.001275 -0.002453 0.001643 -0.001463 -0.004519 0.003028 0.005751 0.004326 -0.00516 -0.003354 -0.001601 -0.003008 -0.002471
here -0.003682 -0.001313 -0.000639 -0.003287 0.001772 -0.001565 0.003131 0.003893 -0.000706 -0.000867 -0.001587 0.003388 0.002065 -0.004744 0.004557 0.005957 6.5e-05 -0.004423 -0.000485 -0.003118 -0.006067 0.005119 -0.002829 -0.003433 0.002367 -0.004041 0.003782 0.005881 0.001219 0.0053 -0.004665 -0.002202 0.003177 0.003193 0.002663 0.006117 0.00249 0.00333 0.000532 -0.003994 -0.004228 -0.004697 -0.004472 -0.005667 0.00357 -0.000608 0.004051 0.004825 -0.001184 0.000254 -0.00616 0.002262 -0.004191 0.006142 0.003376 -0.005128 -0.006073 0.003056 -0.005272 0.000796 -0.006127 0.000655 0.000207 0.000915 -0.001804 0.002371 -0.003098 -0.003329 0.004276 0.003972 0.005705 -0.003491 0.00508 0.005692 -0.003837 0.003947 -0.000585 -0.004602 -0.003281 -0.005188
its 0.003069 -0.003606 0.002288 -0.000191 0.000818 0.000959 0.000703 0.004659 -0.002768 -0.002048 0.002461 -0.00459 0.004931 0.000346 -0.004035 -0.004518 -0.005259 -0.003347 0.005068 0.002272 -0.005762 0.005775 0.003831 -0.003727 -0.002012 -0.002842 -0.004932 0.004841 -0.003677 -0.00486 0.005759 0.003181 -0.000498 0.00365 0.001079 -0.003889 0.001877 -0.004259 -0.00102 0.001805 -0.001699 0.004569 -0.000533 -0.000742 0.00314 -0.006297 0.003053 0.002621 -0.002712 -0.002877 0.000927 0.00531 -0.004605 0.005721 0.00517 0.002369 0.000959 -0.003647 -0.004217 -0.003203 0.005352 -0.004038 -0.006091 -0.004822 -0.003485 -0.005223 0.003886 8.2e-05 0.001654 0.001505 0.000883 -0.005256 -0.003368 9.5e-05 0.000409 0.004138 -0.003947 -0.002103 0.002705 -0.000373
sorry 0.005545 -0.005685 -0.000933 -0.004342 -9.9e-05 0.000709 0.002804 -0.0008 -0.001682 -0.000418 -0.003655 0.003825 -0.003781 -0.000703 0.005577 0.004742 -0.000516 0.00567 0.003331 0.002197 0.004672 -0.005707 -0.003182 0.005035 0.003561 0.003502 -0.005225 0.006207 0.003615 -5.6e-05 -0.004424 6.5e-05 -0.002305 0.001266 0.004829 -0.003988 -0.002898 -0.003625 -0.000756 -0.001255 -0.004215 -0.000161 0.003388 0.005776 0.00229 0.003358 0.004968 0.005667 -4.5e-05 0.002713 0.003221 0.003381 0.004354 -0.002476 -0.001791 -0.006127 -0.005997 0.004998 -0.003655 -0.004966 -0.002105 -0.003948 0.002449 -0.006121 0.000842 0.004764 -0.006028 0.003234 -0.005777 -0.002191 0.005664 -0.002185 0.001754 -0.001811 -0.000436 -0.004929 0.002428 -0.005846 0.002624 -0.000641
let 0.006482 -0.001375 0.001389 0.005824 0.003748 0.000743 -0.004223 0.005044 0.002069 -0.001024 -0.001731 0.0036 -0.002873 -0.001602 -0.000154 0.001536 -0.002484 0.000371 -0.001711 -0.005188 -0.003759 -0.00494 0.002427 -0.001593 -0.000479 -0.00627 0.005052 0.002507 0.00206 0.003202 0.000971 0.004451 0.00468 0.002753 0.005486 0.00437 -0.005651 0.00271 0.00213 -0.005891 -0.004489 -0.004002 0.002017 -0.000731 -0.001626 -0.0026 -0.005187 0.000895 0.001968 0.004732 -0.003692 -0.002645 0.003982 0.004835 -0.003418 -0.002733 -0.00546 -0.005429 0.004155 0.004565 0.001761 0.003377 -0.001735 0.005597 0.000751 0.002952 -0.003987 0.003809 -0.002447 -0.005275 0.003358 0.00168 0.004824 0.004345 0.001539 -0.004807 -0.004044 0.000955 0.003937 -0.005902
plan 0.003361 -0.004563 0.002131 -0.003276 -0.003566 -0.004102 -0.005421 -0.004919 0.002449 -0.003785 0.002089 0.001703 -0.004255 0.005821 -0.003171 -0.003227 0.000526 0.006175 0.001254 -0.005768 -0.005795 -0.001631 -0.001828 -0.001785 0.004756 0.004496 0.004102 -0.001716 0.004897 0.002721 -0.000355 -0.005008 -0.000271 0.003204 -0.002872 0.003259 -0.005038 -0.002521 0.001567 0.003923 0.000776 -0.004745 -0.004301 0.003143 -0.001598 -0.005185 -0.002613 -0.003686 0.001846 -0.001756 -0.002111 -0.000164 0.004708 -0.004648 0.003676 -0.002822 -0.000975 0.005611 0.003979 -0.002698 -0.000311 -0.002249 0.000736 -0.004017 -0.00029 -0.000839 -0.000467 -0.000872 0.003426 0.005507 0.001873 -2.8e-05 0.000763 0.001267 0.002838 -0.000754 -0.001531 -0.00174 0.002681 -0.006096
address 0.005568 -0.00239 0.001329 -0.005081 -0.002903 -0.005222 0.004309 0.00046 0.001406 -0.005849 0.003343 0.002728 0.00367 -0.0016 0.003161 0.006059 0.005453 0.004517 0.005033 -0.005277 -0.003384 -0.002627 -0.006053 0.005386 -0.004279 -0.00328 0.000447 -0.00024 -0.005908 0.001536 0.002607 0.00504 0.003716 0.000353 0.001632 0.000208 0.00058 -0.00137 -0.003257 -0.005173 -0.000308 0.005434 0.004275 -0.002114 -0.003713 -0.002631 -0.004693 -0.002035 -0.005875 -0.004144 0.005612 0.002679 -0.005631 -0.005444 -0.001979 0.00286 0.004644 0.003785 0.003314 0.002884 0.000718 4e-06 0.005042 0.002032 -0.004325 0.005704 -0.004297 0.004801 0.002909 0.001813 0.00537 -0.000439 0.005514 -0.002923 0.005034 -0.0047 -0.001305 -0.002142 0.003377 0.000527
not 0.004249 0.00617 0.002234 0.001015 -0.006175 0.004418 -0.004194 2.8e-05 -0.006226 -0.003389 0.001776 -0.004881 -0.00297 -0.004254 -0.003758 -0.002674 0.005374 -0.003523 0.002909 -0.000554 -0.00643 -0.005169 -1.8e-05 -0.000161 0.005232 -0.002975 -0.006229 0.005073 -0.001138 0.00546 -0.00094 0.001237 0.000847 -0.000678 0.0037 -0.003873 -0.000418 0.005517 0.001615 0.001593 0.002072 -0.00587 -0.001985 0.004813 0.001679 0.002044 -0.002131 0.001607 -0.004786 -0.000147 -0.000339 -0.005253 -0.003754 0.003162 0.005724 -0.000166 0.000262 0.0003 -0.005535 -0.002702 -0.001161 0.00232 -0.003008 0.001239 -0.00416 -0.003771 -0.003381 0.003044 -0.002488 0.001067 0.004475 -0.003904 -0.004997 -0.003551 0.005631 0.002432 -0.002945 -0.006091 0.00538 0.00374
SLOT_TIME -0.002844 -0.003012 0.003197 -0.006207 -0.001785 0.003482 -0.004001 0.002433 -0.000332 0.004175 -0.001179 -0.005905 0.001669 0.001986 0.006275 -0.005234 -0.002676 0.005835 -0.003733 0.00056 0.001934 0.003825 2.4e-05 -0.000462 0.005837 -0.00561 -0.001187 -0.001212 0.001054 0.00477 -0.004639 -0.001534 -0.002195 0.005349 -0.004131 -0.003335 0.000864 0.004181 0.003066 -0.000409 -0.000473 0.001932 0.0039 -0.005922 0.000647 -0.000693 0.006167 -0.002915 0.003311 -0.00281 -0.004299 0.003683 0.002418 0.000565 -0.005783 -0.003964 -0.002003 -0.002258 -0.003184 -0.004255 -0.002768 0.004793 -0.002748 0.000487 -0.005488 -0.001119 0.004634 -0.003465 0.005773 0.001875 3.3e-05 0.003791 -0.000691 0.005279 -0.00563 0.006354 -0.001978 0.005103 0.004123 0.003173
be 0.004596 -0.005396 -0.00212 0.004412 -0.005086 -0.001754 0.001594 -0.001533 0.003508 -0.001597 -0.002472 0.000586 -0.005133 0.000879 -0.003468 1.9e-05 0.005507 0.003244 0.00382 -0.001308 0.003874 -0.003043 0.005021 -0.004258 -0.006167 -0.000244 -0.000316 -0.001404 0.000277 -0.000968 -0.002711 -0.005792 0.003137 0.005754 -0.003914 0.005849 0.003353 0.001257 -0.004627 -0.00376 -0.003452 0.005083 -0.0053 0.001771 -0.005261 -0.002516 -0.00162 0.005006 0.002013 0.004697 -0.003972 -0.000297 -0.002497 -0.00071 0.00257 0.001083 -0.002229 0.003487 -0.001364 -0.001323 -0.004156 -0.002271 0.004773 0.005953 0.002273 0.004241 0.002507 -0.004999 0.005757 -0.000862 -0.005578 -0.002194 -0.006092 -0.002222 -0.00095 -0.000668 -0.001884 -0.005946 0.005632 0.0038
one -0.003885 0.00539 -0.004151 0.002327 0.000577 -0.00055 -0.003312 -0.00042 -0.004028 0.001217 0.002063 -0.005753 0.001252 0.003444 0.005068 -0.001311 0.003055 -0.001984 -0.0057 0.000157 -0.005992 -0.002537 -0.004138 0.006134 0.005925 -0.004841 -0.003973 0.006184 -0.005397 -0.000642 -0.005299 -0.003458 0.004933 0.004943 0.001067 0.00188 -0.004042 -0.005829 -0.00609 -0.006314 -0.004093 -0.002839 -0.001984 0.004161 0.004797 -0.004028 0.003819 -0.003999 0.00222 0.001573 0.000159 -0.002516 -0.000249 0.0004 -0.005317 -0.000909 -0.004572 -0.001567 0.000499 -0.0049 0.003743 -0.000478 0.004747 0.004558 -0.001226 0.003656 -0.001146 -0.001457 0.006194 0.002586 -0.002863 -0.00597 0.000741 -0.002259 -0.006288 -0.003929 0.00311 0.0008 0.00339 -0.001845
why 0.000486 0.004839 -0.003301 0.003632 -0.00423 0.003073 -0.000707 -0.004376 -0.000757 0.004502 0.003292 -0.005588 0.002476 0.003288 -0.001234 0.003958 -0.006215 -0.002829 0.005205 0.005912 0.004291 -0.003041 0.003834 -0.001998 -0.003251 -0.002033 -0.001943 0.000425 -0.004667 0.002315 -0.006234 -0.000514 -0.002991 0.001015 0.001013 0.000229 0.005814 -0.003695 0.005406 -0.003743 0.004222 0.005141 0.004785 -0.005742 0.002155 0.005795 0.003332 -0.002039 -0.002806 0.004374 -0.002819 -0.001691 0.005126 0.005003 0.004883 4.5e-05 -0.002879 0.000856 0.005001 0.005614 0.004168 -0.00549 0.000978 0.00024 0.002184 -0.004423 -0.003584 0.003954 0.005856 -0.000218 0.001359 0.004281 -0.006217 0.003054 -5.8e-05 0.004957 -0.00255 0.00544 -0.00507 0.004981
SLOT_RATING 0.003504 -0.003757 -0.003423 0.000414 -0.005813 -0.001478 0.001206 0.001093 0.002152 -0.002246 0.004998 0.002385 0.004277 0.004415 0.002744 -0.002673 -0.003122 -0.00061 0.001126 -0.0004 0.005763 -0.002679 -0.000521 0.005453 0.002402 0.004006 -0.000807 -0.002542 -0.005065 -0.003842 0.003828 -0.003403 0.003017 0.003473 -0.001664 0.002685 -0.005548 0.002939 0.003442 0.00381 0.002715 -0.000199 -0.003564 0.005389 0.003054 -0.005845 0.005416 -0.001829 -0.000591 -0.004768 0.00122 -0.000494 -0.001888 -0.001849 0.004332 -0.001545 -0.002135 -0.000593 0.002828 -0.004031 -0.000483 -0.002888 -0.00512 0.000663 0.005078 0.006 -0.005554 -0.004327 0.006001 -0.000616 0.004653 -0.005682 -0.002324 0.003661 0.002017 0.005848 -0.00597 0.001536 0.001644 -0.004244
me -0.00407 0.005328 0.006209 -0.005778 -0.001092 0.000767 -0.001125 -0.000614 0.004083 -0.001701 -0.002668 0.000916 -0.005133 0.00047 0.001294 0.005952 -0.00428 0.00142 -0.000757 0.001927 -0.006371 0.005214 -0.00359 -6.6e-05 0.002789 -3e-06 0.003952 -0.001357 -0.002119 0.000561 -0.004529 -0.003511 0.001904 0.00356 -0.000524 -0.000236 -0.004397 0.002332 -0.001403 0.000784 -0.005209 -0.002213 0.00185 0.000477 0.00236 -0.005603 0.004166 -0.002983 0.00411 -0.002292 0.003433 -0.001914 0.000472 0.004167 -0.005445 0.002742 0.002627 0.001679 -0.005752 -0.003739 0.001225 0.002232 -0.000958 -0.004531 0.002863 -0.005487 -0.004544 -0.000711 0.004875 -0.001328 -0.001463 -0.000352 -0.004978 -0.00513 -0.005175 0.005971 -0.001215 -0.005735 -0.00562 0.002535
going 0.00458 -0.00478 -0.001687 0.003089 -0.004179 2.5e-05 -0.003678 0.003153 -0.002097 -0.004124 -0.000331 -0.003188 0.001458 -0.003765 0.004975 0.002857 0.001586 0.00045 0.005492 0.005521 -0.002501 0.002557 0.000322 -0.005919 0.004638 -0.001194 0.001492 -0.001306 -0.005718 0.005576 0.003061 0.005502 0.002683 -0.000916 0.004364 -0.005753 0.002975 5.6e-05 0.005744 0.0017 -0.004273 0.000357 0.002257 -0.003329 -0.002385 0.005613 -0.003419 0.002957 0.002957 -0.00284 -0.000927 0.005931 -0.00063 0.00539 -0.004937 0.003778 0.004833 -0.001045 0.003261 -0.001755 -0.002812 0.001813 -0.005093 0.004818 -0.003373 -0.000929 -0.000529 0.003011 0.003791 3.4e-05 0.00493 -0.005059 -0.003813 -0.004279 0.000551 -0.000128 0.00059 0.004764 0.006182 0.001468
kind 0.00294 -0.004744 0.000338 0.005775 -0.005977 0.000845 0.004662 -0.000839 0.000598 0.000866 -0.000906 -0.00622 0.002086 -0.003902 0.00084 0.002607 0.001686 -0.000453 0.00486 -0.005146 -0.005289 0.005309 0.000983 -0.005779 0.000181 -0.00232 -0.004608 -0.005246 -0.003855 -0.005771 0.000828 0.001544 0.005147 -0.000963 -0.003601 0.001285 -0.00276 -0.002179 0.000972 -0.004667 0.001103 -0.000119 -0.002426 0.003019 0.002991 -0.004487 0.003592 0.001718 -0.003083 0.001181 -0.002986 0.003293 0.00221 -0.000593 0.003902 -0.006087 0.004543 -0.000475 -0.000932 0.00275 0.000523 -0.004768 -0.00157 0.002617 0.003091 -0.003036 0.005666 -0.00092 -0.005911 -0.005022 0.004556 0.003893 -0.003107 -0.002972 0.002742 0.004562 -0.004999 0.005367 -0.000439 -0.003875
I -0.005192 0.004225 -8e-05 -0.00154 -0.00202 0.001387 -0.0037 0.004798 0.002625 -0.00119 0.001916 -0.002219 0.000322 0.002442 -0.00117 0.002748 -0.004607 -0.006099 0.002182 -0.005344 0.004665 0.003568 0.004036 0.002098 0.006154 0.004159 5e-05 -0.003912 -0.004451 0.004085 -0.005773 0.001921 -0.004126 -0.00164 0.001381 0.004916 -0.003796 -0.001801 0.005323 -0.003261 0.002394 -0.001885 -0.002327 0.001317 -0.00448 0.005191 0.00586 0.003056 0.003952 0.002889 0.005717 -0.002924 -0.002873 0.000545 0.000739 0.004834 -0.004797 0.000577 0.003241 -0.003902 -0.000226 0.003989 0.005508 -0.002835 -0.001347 0.002176 0.003545 0.003343 0.005573 0.001836 -0.000314 -0.003141 -0.002852 0.001504 0.002821 0.00211 -0.00391 -0.003711 -0.002941 0.004462
like -0.00293 0.002777 -0.000755 0.000551 -0.002726 -0.005164 0.006021 0.000273 -0.005116 -0.004939 0.005712 -0.005066 -0.003006 -0.004666 -0.00174 -0.000105 0.001459 -0.006019 -0.004873 -0.001009 -0.00427 0.000632 -0.001119 -0.004459 -0.000942 0.002567 0.006025 0.000111 -0.003245 -0.004128 0.001624 0.001839 0.002086 -0.002357 -0.00145 -0.002967 -0.004704 0.002808 -0.000969 -0.001837 -0.003451 -0.00308 0.002649 -0.003082 0.002783 -0.001148 0.003031 -0.004394 0.003735 -0.003143 -0.000751 -0.002361 -0.005077 -0.005343 -0.005963 0.006144 0.002199 -0.001262 0.002554 0.003047 -0.001576 -0.002408 0.003753 0.002781 0.00181 -0.00203 -0.00201 -0.000209 0.003952 -0.002023 -0.001652 0.000412 0.005044 0.001093 -0.004954 -0.003955 0.003941 0.006152 -0.004563 0.003048
eat -0.001156 -0.000331 0.004292 -0.004371 0.002712 -0.003231 0.004808 0.005632 0.00297 -0.005016 -0.001555 0.004013 0.004852 -0.000285 -0.000472 -0.005853 -0.001275 0.005259 -0.004906 0.002397 0.001442 0.004701 -0.002491 -0.004524 0.003112 0.005937 -0.00578 -0.002376 -0.000603 7.8e-05 0.004224 0.005645 0.005727 -0.000615 0.003287 0.003391 -0.001267 0.002978 0.005522 -0.005961 0.001556 0.00402 0.005548 -0.004578 -0.002681 -0.006155 0.001426 0.000494 -0.005052 -0.00251 0.003392 0.003645 -0.003525 0.003455 -0.005241 -0.00444 -0.000283 0.000956 0.002572 0.000269 -0.003557 -0.004548 0.001495 0.003002 -0.001934 0.00306 -0.004808 0.001388 0.006099 0.001883 0.000775 0.001072 -0.000783 0.004232 -0.001669 -0.005949 0.002009 0.003055 -0.001172 0.005678
restaurant 0.005856 -0.004712 0.003999 -0.002973 -0.005653 0.000211 -0.002458 -0.005601 -0.005237 0.000335 -0.001899 -0.004978 -0.001537 0.00539 0.003586 0.002873 -0.00175 0.005331 0.002133 -0.004715 0.005032 0.001793 0.000447 -0.003936 -0.004987 -0.003507 -7.5e-05 -0.001641 0.002281 -0.004108 -0.000515 0.001137 0.002992 -0.002735 -0.005117 -0.000624 -0.005382 -0.004318 -0.004099 0.000663 -0.001157 0.003317 -0.005425 0.005228 -0.003809 -0.000714 -0.00291 0.005929 -0.004408 -0.002857 -0.000946 0.004912 0.006148 -0.00224 0.002016 0.002597 0.001817 -0.003413 -0.001482 0.000108 -0.004133 0.004865 0.002902 -0.000513 0.005108 -0.003655 0.002026 -0.004701 -0.003764 0.002194 0.000635 0.00056 0.001883 0.004554 0.001057 0.005537 0.001973 -0.000927 0.002802 -0.000243
i 0.005113 -0.005649 0.000154 -0.003868 -0.002127 0.000971 -0.000397 -0.004441 0.005833 0.005076 -0.002449 0.002203 -0.003918 0.003932 -0.003546 0.00117 -0.004917 0.003861 0.003723 0.006074 -0.004037 0.003788 0.003845 0.003184 -0.004998 0.000123 0.005294 0.003825 -0.00453 -0.00096 -0.000325 -0.000674 0.00164 -0.005804 -0.002536 0.001626 -0.005503 -0.003803 0.006317 -0.001319 0.0026 0.003187 1.2e-05 -0.000503 0.004729 -0.001245 0.003321 -0.000493 -0.000404 0.00168 -0.001933 -0.001452 -0.003229 -0.005465 0.003157 0.002359 0.004365 0.003083 0.004194 0.002125 0.005126 -0.000253 0.005889 0.005824 0.00263 0.0019 -0.000109 0.004316 -0.001655 -0.000283 0.006049 0.004848 -0.003971 -0.002452 0.004453 -0.005164 0.001845 -0.000729 -0.001106 -0.000479
of 0.005668 -0.004556 -0.000694 -0.003047 -0.000273 -0.001297 0.00582 0.000675 -0.000852 -0.002858 0.000411 -0.003033 -0.004523 0.004615 -0.002652 -0.000587 -0.004827 -0.002611 -0.001518 0.002647 -0.006126 0.001768 -0.004182 -0.000388 0.002526 -0.004187 0.002107 -0.000976 -0.001219 0.000987 -0.005016 0.004091 -0.002378 -0.001643 0.000231 0.001952 0.002352 0.004312 0.002788 -0.003004 -0.003972 0.001652 0.002451 -0.005706 -0.004432 -0.000507 0.0007 0.001625 0.004885 -0.001032 0.001193 0.005757 -0.002018 -0.006001 -0.002043 -0.005432 -0.006069 -0.0018 -0.005999 0.00189 0.003647 -0.001516 0.004666 -0.002725 0.002949 -0.005327 -0.000372 0.000951 -0.001508 0.002055 -0.004093 0.004789 0.004546 -0.004535 0.004083 0.000234 -0.000664 0.000562 -0.004145 0.004843
SLOT_CATEGORY 0.00247 0.001394 0.004379 -0.005197 0.004459 -0.004037 0.000594 -0.003686 0.005251 -0.004965 -0.004892 -0.004455 -0.004695 -0.003147 0.003591 -0.004217 -0.005001 -0.000255 -0.005148 0.004836 -0.003917 -0.004056 -0.000589 -0.00098 -0.003305 -0.006613 -0.002378 0.004289 0.002178 0.003761 0.002369 0.00479 0.00467 0.000855 -0.003142 0.001931 -0.004557 -0.004838 0.003122 0.001692 0.000887 -0.0055 0.003429 -0.004534 -0.000139 -0.001351 0.004034 -0.003849 0.000592 0.000698 -0.000772 -0.004454 0.00619 -0.00373 -0.004492 0.002059 0.005956 0.00177 0.001467 -0.005589 0.003916 -0.002703 -0.004809 0.005636 0.001471 0.00578 0.003435 -0.004918 -0.003769 -0.005485 -0.002339 -0.002509 0.000622 0.005356 0.003627 0.006349 0.003809 -0.002068 0.002204 -0.005194
no -0.005478 0.001411 -0.004987 0.004137 -0.002464 0.001859 -0.000654 -0.004623 0.005179 -0.005904 -0.005129 0.005396 0.001434 -0.003733 0.004967 0.000148 -0.001835 -0.004883 0.00538 -0.005593 -0.003113 -0.005292 -0.00164 0.005183 -0.002422 -0.00603 -0.005632 0.006407 0.004303 -0.005134 0.006118 -0.005819 0.006254 -0.005181 -0.004624 0.000682 -0.003111 -0.004025 0.005429 0.002728 0.003842 0.004699 -0.003623 0.00573 0.003233 -0.002612 0.002307 0.003267 -0.001514 -0.002181 0.004325 -0.002235 0.002306 0.00146 0.000791 -0.003962 -0.005153 -0.003891 -0.003057 0.00023 -0.005513 -0.003677 -0.005484 0.004716 -0.00127 -0.001243 -0.005064 -0.000542 0.005484 -0.003249 -0.003326 -6.9e-05 -0.004263 -0.00119 -0.00342 -0.005266 0.001038 0.004152 -0.005314 -0.001914
resturant 0.001269 0.004523 0.004345 -0.00152 -0.001112 -0.003604 -0.005718 -0.004467 0.003821 0.005041 -0.000159 -0.004854 -0.003918 -0.005428 0.001917 -0.000831 0.002188 -0.002322 -0.004734 -0.003454 0.005351 -0.005019 0.005106 0.003202 0.005802 0.000251 0.000756 -0.001254 -0.000428 0.000988 0.005004 -0.000124 -0.000505 -0.001472 -0.000716 -0.000158 -0.001029 0.001476 -0.000442 0.004246 -0.001394 -0.0045 -0.00577 0.000134 0.004753 -0.000889 0.005878 -0.000878 0.005633 0.004804 -0.000311 0.005754 0.004804 -0.00354 0.004394 0.003706 0.006152 -0.004227 -0.000969 0.005605 -0.003122 0.000397 0.001621 -0.001883 0.005636 -0.004258 0.002514 -0.000444 -0.005016 -0.003962 -0.006201 -0.004282 0.002965 -0.001948 -0.001463 -0.000456 -0.005326 -0.004094 0.000767 0.000447
will -0.001368 -0.001476 0.001319 0.002845 0.002113 0.004567 -0.005109 0.003992 -0.00359 -0.000437 0.005468 -0.005891 0.003963 -0.005167 0.002581 -0.004812 0.001715 -0.004658 -0.000801 0.005947 -0.004247 -0.00619 0.006225 0.003444 -0.002755 0.005102 -8.6e-05 0.00448 2.9e-05 0.000314 -0.000722 -0.002053 0.004227 -0.000704 -0.003281 -0.004517 0.003286 -0.001733 -0.001575 0.005603 -0.000677 -0.002656 -0.003568 -0.000702 0.000948 -0.005594 0.005981 0.005466 0.002847 -0.005447 -0.004134 0.005405 0.003812 -0.003481 -0.00078 -0.002818 4.1e-05 0.002852 -0.00324 0.005638 -0.000663 -0.004252 -0.001667 0.004187 -0.005723 0.002349 -0.003181 -0.002942 -0.003369 -0.006059 0.000596 -0.002616 -0.003226 0.004614 -0.003651 -0.006137 0.004182 0.005575 0.001262 -0.002272
did -0.001242 -0.002928 -0.001465 -0.004871 -0.00335 -0.006084 0.004666 -0.005708 0.004749 -0.005863 0.002602 -0.004592 -0.001697 0.005998 -0.004895 0.005334 0.003241 -0.004038 -0.001691 0.003741 -0.002117 0.004867 0.000739 -0.004983 -0.005868 -0.001096 -0.00056 0.003069 0.002487 -0.001094 -0.003999 2.7e-05 0.003882 0.000799 0.004852 0.000264 -0.00049 0.002415 -0.003559 -0.004893 0.002728 0.00432 0.000836 -8.4e-05 0.005712 0.001338 -0.003109 -0.003026 0.001628 0.00601 0.000177 0.00585 -0.000119 -0.005709 0.003934 4.6e-05 0.0024 0.004407 -0.000754 0.002901 0.004329 0.002777 -0.000669 -0.002476 -0.001798 0.005245 -0.003486 0.003481 0.004382 -0.005073 0.002854 0.000583 0.001912 -0.001801 -0.002596 0.003947 -0.004624 0.001765 -0.000168 0.004911
SLOT_INFO 0.004548 0.002339 0.005767 0.000806 -0.005213 -0.004757 -0.000774 0.001917 -0.002907 -0.001624 0.003644 -0.001271 0.004678 -0.005566 0.003995 0.004247 0.002838 0.003887 0.00417 0.002873 0.004194 -0.00117 -0.002004 -0.002612 -0.005309 -0.001128 0.006146 -0.003388 -0.004971 -0.003394 0.001734 0.001873 0.005543 0.000978 0.005988 -0.005351 0.000162 -0.002344 0.003055 -0.002526 -0.001554 0.003735 0.00505 0.002345 -0.005534 0.005945 0.005914 -0.001591 0.004557 -0.000214 -0.001143 -0.000218 -0.005995 0.004964 -0.003652 -0.000457 -0.003492 -0.001823 0.001045 0.004322 0.001382 0.002722 0.006203 -0.002848 0.004497 -0.001021 0.005793 0.003879 -0.001563 0.00479 0.003311 0.003478 0.004897 -0.000997 -0.006227 -0.004367 -0.001882 4.4e-05 -0.004918 0.001851
a 0.001132 -0.00127 0.001742 0.002298 -0.003656 -0.005809 -0.003047 -0.002494 0.004402 0.004489 -0.001025 0.000159 -0.002465 0.001876 0.004682 0.001273 0.002381 0.005088 0.004378 -5.8e-05 -0.002946 0.006053 0.002752 0.00482 0.000641 -0.001907 0.001922 -0.004902 0.00552 0.003531 -0.003917 0.000645 -0.002057 -0.002547 -0.006132 -0.000995 -0.002103 0.002288 0.00211 -0.002667 0.001084 0.002466 -0.004856 0.006247 -0.002452 0.000667 0.000899 0.001241 0.004669 0.000736 9.3e-05 -0.00201 0.001318 -0.004435 0.001989 0.003438 0.002162 -0.003722 0.004373 -0.001481 -0.003749 0.003029 0.004066 -0.003592 0.002017 0.001554 -0.003083 0.000732 -0.001458 -0.001811 -0.000405 -0.002526 -0.004272 0.000407 -0.003599 0.00582 0.002299 0.00099 0.000252 0.006185
place 0.005076 -0.006075 -0.00489 0.00286 0.004135 -0.000722 -0.004349 -0.002908 -0.000152 0.005965 -0.004184 0.002281 0.0049 -0.003815 -0.001937 -0.002871 -0.001289 -0.003762 0.005667 -0.003596 0.005915 0.001044 0.006195 -0.000908 1.9e-05 -0.002024 -0.005931 -0.005566 -0.004696 -0.005776 -0.0001 -0.005854 0.000422 -0.000283 0.003189 -0.005944 0.003173 0.003312 0.003289 -0.005955 -0.003444 -3.3e-05 -0.000907 -0.00442 0.006192 0.002903 0.003316 0.006311 -0.005495 -0.001879 -0.0046 -0.003828 0.000818 0.005965 0.002063 0.004369 -0.005272 0.003908 0.00288 0.005353 0.00113 -0.002405 0.000903 -0.000132 -0.004589 -0.005402 0.004493 -0.004063 0.001933 0.003673 0.001232 0.002099 0.0006 0.004308 -0.001446 0.005298 0.004534 0.000372 -0.005376 -0.00276
time 0.004832 -0.00183 0.001517 -0.00431 0.002355 -0.005152 -0.004786 -0.002755 -0.003393 0.002734 0.005058 -5e-05 -0.002889 0.00484 -0.001745 -0.000312 0.00087 -0.003572 0.003733 -0.003074 -0.006239 0.002162 -0.005696 0.001764 -0.005488 0.003026 0.003062 -0.005575 -0.002105 -0.002114 -0.002478 -0.005402 0.002605 0.002917 0.004989 -0.00518 0.005717 -0.005889 0.003688 0.004519 0.004367 -0.004376 0.00176 -0.001572 0.003411 -0.00432 0.003785 0.001047 0.003939 0.005753 -0.003267 -0.000441 0.004416 -0.00538 -0.003354 0.00357 0.006118 6.3e-05 -0.003373 -0.004434 -0.006048 0.00157 0.001611 -0.004936 -0.003751 0.000643 0.005035 0.005658 -0.005221 -0.004091 -0.003587 -0.002504 0.002446 -0.001874 0.002417 -0.002461 0.005156 0.005264 0.000712 0.000962
about -0.002194 0.004867 -0.0022 0.002398 -0.000903 -0.001203 0.003211 0.004959 0.002635 0.001093 0.005108 -0.004177 -0.002722 -0.006161 -0.005904 0.005127 0.003164 0.001971 -0.001127 0.001216 -0.002886 -0.002259 -0.001552 0.006097 -0.001102 -0.005589 0.005319 0.00193 0.004995 0.00143 0.00482 0.002913 -0.005472 -0.005312 -0.00544 -0.005497 -0.005276 0.004834 0.001415 -0.006276 0.001186 0.005002 0.004449 -0.002213 0.001786 0.006051 -0.000751 0.00612 -0.001414 0.005029 0.005854 -0.002215 0.002478 -0.002485 -0.00077 0.004721 0.004686 -0.003935 0.004682 -0.003639 0.002998 0.004634 -0.005761 0.003466 0.003517 -0.006029 -0.003334 -0.000856 -0.00286 -0.002854 0.002236 0.001946 -0.004528 -0.005152 0.002169 -0.000677 -0.001377 0.000763 -0.001846 -0.002331
the 0.00628 -0.002026 -0.000865 0.000326 0.003918 -0.002035 -0.004122 -0.005418 -0.002235 -0.004429 -0.00277 0.005521 0.004009 0.003175 -0.003405 0.002368 -0.005536 8e-05 -0.005372 -0.006201 0.001815 0.002207 0.005642 0.001738 -0.004764 0.001862 -0.001045 -0.000478 -0.000686 -0.005057 4.3e-05 0.00307 0.001735 -0.004877 1.6e-05 0.000911 -0.002274 0.002387 -0.002603 0.003283 0.005815 -0.003178 0.001451 -0.005961 -0.000663 -0.005787 0.001629 -0.004959 0.000386 -0.000518 -0.006207 0.002627 0.005021 0.004038 0.005862 0.001803 0.000535 -0.003597 0.003752 -0.000525 0.001879 -0.001951 -0.006196 -0.002198 -0.005163 -0.00208 0.001327 0.000378 0.002904 -0.005864 0.004451 -0.002712 0.00082 0.001783 0.004366 -0.000606 0.002039 -0.001616 0.004179 0.002697
where 0.00275 0.001417 0.00156 0.004902 -0.004233 -0.001845 0.002084 0.006108 0.004549 -0.000291 -0.003465 0.0023 -0.003807 -0.001402 -0.001006 0.000342 -0.00446 -0.004305 -0.00076 -0.00501 0.002929 -0.000454 -0.001555 -0.004949 -0.002375 -0.000431 -0.003159 -0.002517 0.005447 0.005554 -0.002246 0.00445 -0.004462 -0.005531 -0.00103 -0.002741 0.000996 -0.003731 0.001938 -0.001528 0.003211 -0.004066 -0.001763 -0.003745 -0.002245 0.000667 0.00048 0.004156 0.004518 0.003602 -0.003798 -0.00083 0.003757 -0.000622 0.006071 0.001196 0.006112 0.005793 -0.005295 -0.006152 -0.00487 -0.005993 -0.001798 0.004111 0.002215 -0.000548 -0.003934 0.002447 -0.00238 0.005682 -0.004781 0.001445 0.00167 0.001805 -0.003602 -0.002037 0.004612 -0.000582 -0.001339 0.004095
maybe -0.00472 0.005479 0.003436 0.00417 -0.001044 -0.005834 0.005391 0.002115 0.001104 0.005626 0.001086 0.001626 -0.003199 -0.005366 0.005132 -0.000936 0.002287 0.003487 0.006293 -0.002423 0.004191 0.000724 -0.004206 0.003112 -0.003883 -0.004034 0.003094 -0.00194 -0.006047 -0.001361 0.001979 0.004168 0.001713 0.001433 -0.003959 0.006137 -0.000905 0.005019 -0.001682 -0.002188 -0.001371 -0.003703 0.000634 -0.000589 -0.002043 -0.005437 -0.004004 0.001796 -0.001546 -0.001026 0.002364 0.000423 8.2e-05 0.003122 0.003549 -0.000966 -0.003008 0.004994 0.002383 -0.002337 0.004438 0.001326 -0.000586 -0.00097 -0.005076 0.003262 0.00145 0.001096 0.003728 0.001694 0.005771 0.001199 0.00287 -0.005717 0.002517 -0.004085 -0.003782 0.002447 0.002346 0.005679
know 0.003066 -4.3e-05 0.00367 0.003019 -0.004861 0.001659 0.004571 -0.006263 0.000817 0.00233 -0.004547 0.004571 0.004891 -0.000473 0.005565 0.003729 0.005236 -0.004204 0.006212 0.002537 -0.005863 0.005877 -0.006224 0.005607 0.006192 0.002685 -0.001902 -0.002101 0.001779 -0.005341 -0.005391 -9.6e-05 0.004882 0.000874 -0.004228 0.00478 0.005111 0.002771 -0.004042 0.003188 0.003669 0.000598 0.005957 -0.004261 0.00196 0.004051 -0.001745 -0.002838 0.002617 -0.004724 0.002245 -0.000875 0.00251 0.003072 -0.004015 -0.000629 -0.002462 8.1e-05 0.005726 0.00489 0.002047 -0.003981 -0.002635 -0.003349 0.000356 -1.2e-05 -0.002399 -0.00414 0.001771 -0.005464 -0.005233 0.005526 -0.004225 0.001315 0.003564 -0.003549 0.004185 -0.001179 0.003508 0.001338
