and 0.000444 0.003155 0.001597 -0.00075 0.003542 0.003589 0.005571 0.00297 0.002684 0.005938 6.1e-05 -0.001352 -0.006164 -0.002005 0.000431 0.004126 0.002532 -0.003031 -0.00035 0.000958 0.001977 0.004719 -0.00107 0.004217 -0.002873 -0.001403 -0.00279 0.002641 -0.005163 -0.006092 0.004333 0.003778 -0.003729 0.004827 0.005571 0.000627 0.00411 0.005817 0.005902 -0.004436 0.003717 0.00115 0.002578 -0.000937 -0.003131 0.004168 0.006025 0.005186 0.00382 0.00553 0.004761 -0.00273 -0.004913 0.002195 -0.001889 0.004764 0.000559 -0.002888 -0.005938 -0.003753 0.001822 0.00453 4.3e-05 0.001378 0.002066 -0.003312 -0.005926 0.004823 0.004766 -0.006024 0.002905 0.004274 0.001665 -0.005111 -0.001872 -0.005266 -0.006198 0.004189 -0.001029 -0.001759
rating 0.00401 -0.0036 0.005468 -0.003728 0.002757 -0.000799 -0.003219 -0.001494 -2.6e-05 -0.001999 -0.005636 0.005023 -0.003622 0.001219 -0.003538 0.003849 -0.00157 -0.00063 -0.001508 -0.004796 -0.002476 0.002543 -0.000903 0.002678 0.003632 -0.000154 -0.000856 0.005702 -0.001347 0.004494 0.005575 0.001592 -2.6e-05 -0.001175 0.001926 -0.00334 0.001955 -0.000111 0.004692 0.00214 0.003829 -0.002271 -0.005279 0.005028 0.004007 0.004334 -0.003966 -0.004026 -0.003767 -0.002674 0.003122 0.003233 0.005983 0.005222 0.002147 0.003124 -0.005935 -0.000427 -0.00019 0.000723 -0.00183 -0.002683 -0.000873 0.001319 -0.003445 -0.005689 0.000228 -0.003057 -0.005575 0.005626 0.000808 0.000553 -0.002392 0.003778 0.000165 -0.003535 -0.002325 -0.006124 -9.7e-05 -0.002513
would 0.003253 0.002938 -0.004865 -0.000175 -0.005768 -0.004339 -0.005793 0.00321 -0.002002 0.00354 0.004488 -0.003162 0.000169 -0.005536 -0.00625 0.003055 -0.002818 -0.001452 0.002856 -0.005926 -0.001225 -0.005881 0.002427 -0.001875 0.004548 -0.006306 -0.002663 0.004103 0.004805 0.005247 0.000382 0.000145 0.003038 0.004336 0.003116 -0.005068 -0.001695 0.001325 0.003571 -0.00282 0.002499 0.005416 -0.003885 0.000826 -1.8e-05 -0.004578 -0.001542 0.004622 -0.005202 0.004657 0.004145 0.002184 0.004548 0.006121 0.003269 -0.00121 0.001172 0.001881 0.002082 0.000776 0.001089 0.004304 0.003018 0.000437 -0.005202 -0.004795 0.000328 -0.001768 -0.002229 0.001046 0.003346 -0.005177 -0.004566 0.001297 -0.003891 0.000738 -0.006091 -0.003534 0.002644 -0.005614
right -0.000886 -0.000237 -0.004027 0.002778 6e-06 0.005578 0.001948 -0.002331 0.004119 0.003704 -0.000445 -0.000142 -0.006077 0.00047 -0.003998 0.003125 -0.002823 0.004544 -0.002547 8.4e-05 -0.004787 0.005487 0.006031 0.00293 -0.003755 0.005205 0.004329 0.003871 -0.002388 0.003197 -0.00501 -0.002728 0.003508 0.002057 0.001473 0.000277 0.002199 0.005298 0.005649 -0.003235 -0.005909 -0.00315 -0.000925 0.005251 -0.00341 -0.001769 0.002595 0.002361 0.00501 0.001742 0.000552 -0.002767 -0.002149 -0.00561 -0.004871 -0.001155 0.006195 0.002518 -0.006052 0.002166 -0.003711 -0.001528 0.003333 -0.001347 0.002696 -0.001067 -0.000379 -0.000109 -0.0025 -0.006122 -0.004104 1.9e-05 -0.003699 -0.000643 -0.002959 0.002565 0.00613 -0.0003 0.005401 0.002602
shot -0.00419 -0.005795 0.005372 0.002753 0.002905 -0.00601 -0.001121 0.004665 -0.004463 -0.000909 0.003208 -0.004502 0.002755 -0.005406 -0.004487 -0.001948 0.003395 0.002641 0.005239 -0.005177 0.005644 0.005248 -0.002139 0.004814 -0.004211 0.003001 -0.00197 -0.000662 -0.006007 -0.004819 0.005754 -0.000845 0.004282 -0.003149 -0.000772 -0.004854 -0.001703 -0.006019 0.003621 0.001295 -0.002356 6.3e-05 -0.004209 -0.005297 -0.005608 -0.002758 0.00334 -0.002668 0.002152 -0.003575 -0.003889 -0.000773 0.005949 -0.001036 -0.001994 0.003423 0.003695 -0.004953 -0.004109 0.003823 0.004778 0.004184 -0.005724 0.001435 -0.000436 0.001865 -0.001349 -0.003783 0.004443 0.004586 0.000593 0.001774 0.006175 -0.005741 -0.002733 -0.00116 -0.005519 -0.006259 0.002014 -0.003849
give -0.003406 -0.003781 0.00115 0.001561 0.00038 -0.001522 0.000948 0.003275 -0.002296 0.001695 -0.003113 -0.000487 0.003786 0.000284 0.000507 -0.005319 0.002638 -0.003278 -0.005918 -0.004721 -0.005987 -0.000191 0.002988 -0.000313 0.004288 0.000454 0.003232 0.00536 0.005462 -0.00454 -0.003485 0.002096 -0.002156 0.002379 0.000651 -0.003574 0.001798 0.00074 -0.000949 -0.001063 0.003664 -0.002451 0.002352 -0.005193 -0.001019 -0.002379 -0.000918 0.006211 0.00537 0.00034 0.003298 0.006068 -0.002272 0.002613 -0.005519 -0.003773 -0.005902 0.005172 -0.005398 -0.006052 0.005976 -0.003588 -0.003303 0.002279 0.004553 0.001091 -0.005736 0.001064 0.002832 -0.001581 -0.003322 0.003291 -0.003513 -0.001964 0.001267 -0.000738 -0.003187 -3.2e-05 -0.003718 0.004557
is 0.000939 0.00132 0.004559 0.002417 -9.8e-05 -0.00359 -0.005804 0.005025 0.00162 -0.001471 -0.002256 0.002604 -0.005635 -0.001421 -7e-05 -0.000564 0.000193 -0.000329 -0.005897 -0.002906 5.8e-05 0.00074 -0.005663 0.00295 0.002574 -0.005685 0.005395 0.002902 -0.006425 0.001035 -0.005301 0.004579 0.005673 -0.003565 0.003473 0.002203 -0.005296 -0.001921 0.004303 0.002996 0.000878 -9.9e-05 0.00214 0.005449 -0.000474 -0.004484 -0.000784 0.00262 0.004318 -0.005598 0.003515 0.000909 -0.000419 -0.005972 0.001176 -0.002779 -0.003775 0.003663 -0.005068 0.005297 -0.00405 0.002791 0.000499 0.003214 0.003419 -0.005805 0.004949 0.001917 -0.002506 0.001227 0.00528 0.003363 0.000701 -0.001264 -0.005797 0.001532 -0.002549 -0.001056 0.005048 -0.006261
am 0.00453 -1.9e-05 0.000212 -0.003912 -0.000667 0.005211 0.002046 -0.003977 -0.006274 -0.001684 0.001963 -0.006268 -0.002244 -0.003233 0.00197 -0.001212 0.002148 0.002517 0.00167 -0.005644 -0.005029 -0.003292 -0.00393 0.005571 0.002084 0.005726 0.003856 -0.002646 -0.001844 -0.003395 -0.002733 -0.002059 -0.003693 0.005693 0.002951 0.001096 -0.002851 -0.002716 0.003205 -0.002766 -0.004935 -0.003468 -0.001827 0.005222 -0.002102 0.004001 -0.002251 0.00401 -0.005731 0.003 -0.002126 0.002349 -0.000729 -0.004897 -0.002011 -0.000569 0.001719 -0.001189 -0.002331 -0.002778 -0.002361 0.003015 0.002306 -0.005822 0.002672 -0.000291 0.000239 -0.004687 0.004373 -0.000794 -0.00077 -0.004545 -0.003588 -0.003214 0.001413 -0.005495 0.004679 -0.005824 -0.003165 0.002112
it 0.004392 0.004726 0.000296 0.000409 0.004181 -0.004967 -0.00537 -0.00239 -0.006053 0.00061 0.004853 0.001727 -0.001158 0.002625 0.005377 0.002501 -0.000294 -0.004921 -0.005757 -0.001591 0.005532 -0.000605 0.003313 0.004327 -0.00047 -0.006488 0.004614 0.002405 0.006048 0.004503 1.7e-05 -0.00511 -0.004107 -0.000346 0.001552 -0.005638 0.001194 -0.005069 0.005796 -0.005178 -0.002482 0.0025 -0.004958 0.000527 0.000561 0.001471 -0.000697 0.005804 0.002964 0.002274 0.004442 -0.00268 0.003223 -0.000815 -0.006195 -0.000301 0.002534 -0.001791 -0.00106 0.001695 0.001739 0.004866 -0.004061 -0.003208 -0.006233 0.005002 -0.004561 -0.004608 0.002962 0.00218 -0.004009 0.005251 -0.002936 0.001985 -0.000366 -0.000947 0.001017 0.001723 0.005533 -0.000163
SLOT_NAME 0.003072 -0.004506 -0.00411 0.005627 -0.003685 0.003955 0.004797 0.000685 0.001708 -0.00149 -0.002171 -0.003996 0.000406 -0.00568 -0.005157 -0.002432 -0.001375 -0.000195 0.005199 -0.003048 0.003544 -0.001384 -0.003008 0.003364 0.002955 -0.00357 0.005329 0.000732 0.002873 0.004821 -0.0025 -0.005416 0.004183 0.000295 -0.00612 -0.003251 -0.00037 -0.002963 -0.000414 0.002612 0.002174 -0.004076 0.003251 -0.002888 0.002895 -0.006409 0.004426 0.005095 -0.004838 0.005949 0.002602 0.002715 -0.002399 0.002341 2e-06 0.003522 0.002421 0.004199 -0.000153 0.002815 0.00261 0.002695 0.00181 -0.003377 -0.002009 -0.004762 0.002642 -0.001987 0.002153 -0.002674 0.000335 0.005104 -0.002645 0.0054 -0.004397 -0.005388 0.000652 0.001616 -0.004048 -0.004427
area 0.004724 0.001392 0.004152 -0.006246 -0.002204 -0.004056 -0.004753 -0.000555 0.006089 -0.003278 -0.00454 0.000132 0.005258 0.001966 5.4e-05 -0.001465 -0.004819 -0.004187 -0.002704 -0.000414 0.004937 0.000848 0.000277 0.003916 -0.001074 0.000953 -0.004146 0.004244 -0.004273 0.005 0.003881 0.00108 0.006276 -0.004757 0.005751 -0.001569 0.005015 0.003472 -0.002749 -0.002959 -0.003015 -0.004588 0.003285 0.00505 0.0057 -8.4e-05 -0.002994 -0.003506 0.002595 -0.000676 -0.002159 0.004595 -0.003979 -9.5e-05 0.002313 -0.005735 -0.004886 0.001076 0.004351 -0.003383 -0.00229 0.000417 0.004247 0.00608 -0.006156 -0.004989 0.004466 0.001373 -0.006103 0.001184 -0.002628 0.006029 -0.005431 0.003267 0.002884 -0.002892 0.00164 0.006046 0.001991 0.002396
serving 0.006326 -0.005131 0.004366 -0.00132 -0.003317 -0.000765 0.004106 -0.004329 -0.005708 -0.002433 -0.004705 0.000516 0.000181 -0.004515 -0.002579 -0.004641 -0.005536 -0.001072 -0.000241 -0.005739 -0.003302 0.001163 -0.004103 0.005496 -0.002658 -0.005537 0.002572 0.004925 0.001649 -0.003599 0.004344 0.002533 -0.001752 0.002472 0.003696 0.000153 0.001545 -0.000921 -0.003487 -0.003902 0.000653 -0.000499 -0.003867 -0.000353 -0.004504 0.000899 -0.000343 0.001692 -0.001732 -0.004668 0.000497 -0.004456 -0.001651 0.000872 0.000785 -0.001478 0.004388 0.003321 -0.00475 -0.006154 -0.004346 -0.002655 0.00383 -0.001554 0.001918 -0.004252 -0.002361 -0.000503 -0.004295 0.005873 0.00541 0.00307 0.00554 0.002497 -0.006169 -0.004323 0.000888 -0.004797 0.004798 0.003861
are -0.000573 0.00525 -0.003744 -0.00286 -0.001742 -0.002292 0.003176 0.004404 -0.006161 0.00531 0.001188 -0.005 0.002841 -0.003483 -0.004044 -0.00616 -0.00349 0.002954 0.003882 0.003067 -0.003114 0.00191 0.00159 -0.000252 0.006359 0.004 0.001384 0.006122 0.004834 -0.005252 -0.003241 -0.000976 -0.001378 -0.003835 -0.005387 -0.001443 -0.00206 -0.002927 0.002519 0.000975 -0.004473 -0.004296 -1.1e-05 -0.003903 0.005785 -0.00434 -0.000256 -0.003871 -0.004472 0.001476 -0.005433 -0.001413 -0.005169 0.001214 -0.001294 0.001257 0.004428 0.000194 0.004088 0.004866 -0.004866 0.00501 -0.005462 0.002149 0.002477 -0.003232 -0.000413 -0.003884 -0.000264 0.004178 -0.003121 -0.0019 0.002298 -0.002906 -0.006305 -0.001117 0.003037 0.001387 0.001075 0.004077
want -0.005001 -0.001049 0.000126 -0.006104 -0.003109 -0.001663 2e-06 0.000271 -0.002708 -0.004872 0.000747 -0.002964 0.000686 0.001521 0.005965 0.00214 0.001411 -0.002722 0.003574 -6.1e-05 0.000879 0.003082 0.006165 -0.003356 -0.002152 -0.002643 3.9e-05 0.005761 0.004857 -0.00138 0.005567 0.002728 -0.003884 0.002517 -0.002195 0.000765 0.006114 0.000811 0.002449 0.00048 -0.003802 0.005022 0.004154 -0.003078 -0.00148 -0.001274 -0.005658 -0.005907 -0.00479 0.004275 -0.001078 -0.001343 0.004767 -0.000491 0.005812 -0.0023 0.004052 -0.002756 0.002763 -0.005031 0.005519 0.006008 0.003701 -0.005985 -0.003406 0.005402 0.000993 -0.005011 0.003546 0.004325 0.003987 -0.004347 -0.004076 0.005046 0.005723 0.003523 0.001355 -0.000545 0.000882 0.002812
in 0.004211 0.005655 0.002661 -0.00136 0.004053 0.003351 -0.00543 -0.00616 0.000154 0.00514 0.006042 -0.000931 0.000794 -0.004642 -0.002055 -0.004035 0.004875 0.001603 0.000678 0.004143 0.001218 0.005377 -0.002747 0.002818 7.3e-05 -0.001529 0.000203 0.000142 -0.003992 -0.001732 -0.000461 0.002754 -0.004522 -0.0022 0.004143 -0.003034 -0.004577 0.003256 -0.001496 -0.003282 0.001518 0.002667 0.005213 0.002135 -0.00611 0.002137 0.001983 -0.002592 -0.00094 0.004067 -0.004279 0.000287 -6.4e-05 0.002233 0.002045 0.001803 -0.000198 0.000807 0.000329 -0.00421 -0.005329 -0.006039 0.002601 -0.003651 0.000562 0.001089 -0.001151 0.00532 0.005821 0.002942 -0.002147 0.001183 -0.002149 0.003342 -0.006055 0.002666 -0.003604 0.003547 0.004945 -0.00609
find 0.006377 0.004781 -0.003322 0.001307 0.001791 0.005926 0.004662 -0.000523 0.003912 0.001205 0.003831 -0.001339 0.004492 0.002733 -0.002502 -0.00265 -0.005883 -0.003974 0.004446 0.002846 -0.001208 0.003193 0.000124 0.005929 0.005317 0.000443 -0.005143 0.006255 0.004095 0.00044 -0.003913 -0.001922 0.001971 0.004975 -0.000293 -0.002271 0.002792 -0.000864 -0.001879 0.004355 -0.00208 -0.001327 0.000566 -0.00287 -0.003397 0.001978 -0.004805 0.005755 -0.002485 -0.005551 0.00553 0.005539 0.002692 -0.001715 0.004663 -0.001359 0.005557 0.005016 -0.002115 0.005952 0.003223 0.001346 0.002275 0.000347 0.000468 -0.00036 0.00427 -0.005155 0.004525 -0.001147 0.001912 0.00093 0.002362 0.002934 -0.003779 -0.001308 -0.00217 7.6e-05 -0.004685 -0.00538
category 0.002238 0.005448 -0.000638 0.00542 -0.003881 -0.000664 0.00027 0.003738 0.000745 -0.003724 0.003675 0.002647 0.000501 -0.005077 0.004676 -0.000734 0.003772 -0.00071 -0.000648 -1.5e-05 0.003745 -0.000412 0.003192 -0.004534 -0.004501 -0.004693 0.005301 0.005981 0.000356 0.005464 -0.002653 0.002114 -0.003634 0.005423 -0.004536 -0.002943 -0.00221 0.002813 -0.000617 0.005432 0.005481 -0.00063 -0.002572 -0.003181 -0.005419 0.001174 0.006198 0.001493 0.001929 -0.001739 0.004903 0.001648 0.005625 0.001068 0.000183 -0.006109 -0.0057 0.000357 0.004806 -0.001644 -0.005279 0.005049 -0.003394 7.8e-05 -0.005587 0.00145 -0.002077 0.006011 -0.005772 0.001125 -0.001307 -0.002513 0.001876 -0.004456 0.001948 -0.006048 -0.002262 -0.002535 0.004602 -0.005764
SLOT_ADDRESS -0.004922 0.005735 -0.002118 -0.000208 -0.003726 0.006015 -0.004894 0.001578 -0.005474 -0.000315 -0.000832 0.005199 -0.00234 0.002771 0.005069 0.003712 -0.003125 -0.002705 0.005994 0.000497 -0.003261 -0.000639 -0.003386 -0.003206 0.006006 0.000163 -0.004699 -0.002428 -0.005028 -0.005301 -0.003622 0.000339 0.000343 -0.000287 -0.000909 0.004067 -0.003423 0.00267 0.001112 0.005549 0.004319 0.001061 0.001848 0.004512 -0.002725 -5.2e-05 -0.001402 0.004077 0.000715 -0.003805 0.003825 -0.002166 0.005524 0.000791 -0.002286 -0.000235 0.00522 0.001345 -0.000371 0.001487 -0.004001 -0.004896 0.005808 -0.002524 -0.000635 -0.003356 -0.00478 0.004929 0.001981 0.002805 -0.005132 -0.003664 -0.004011 0.004965 -0.001977 -0.001248 0.000519 -0.00289 -0.004853 0.003195
what -0.004116 0.004318 0.00322 0.003191 -0.004002 0.002443 0.000337 -0.004743 0.002419 0.005553 -0.00478 0.003539 0.000452 0.005436 -0.002114 0.004071 0.002496 0.004818 0.003626 0.005862 0.003729 -0.00511 0.000468 -0.003684 -0.004906 0.003732 -0.001925 0.002834 -0.001339 0.004449 -0.001604 -0.004422 -0.005075 -0.005806 0.005147 0.003602 -0.005011 0.001707 -0.002318 -0.005426 0.000776 -0.003857 -0.005098 -0.003238 0.001761 -0.001791 0.002768 0.004319 -0.003397 -0.005471 -0.000798 0.000768 0.004055 0.003121 0.003406 -0.005126 0.006289 0.006086 -0.0053 0.002131 0.00425 0.000277 0.001015 -0.003079 0.005524 -0.001314 -0.000948 0.001881 -0.004147 0.005954 -0.005255 0.001431 0.000697 -0.001253 0.002973 -0.002931 0.005596 0.004794 -0.002363 -0.004183
any -0.003013 0.001945 -0.003247 -0.006305 -0.006016 0.003061 0.000946 -0.000465 -0.005772 -0.000554 -0.002866 0.004955 0.005571 -0.001687 -0.001471 0.001129 0.003963 -0.003103 -0.001907 0.002615 -0.003495 -0.003335 0.003756 -0.004323 0.002831 -0.006131 -0.003066 -0.005693 -0.002077 0.003802 -0.005307 0.001413 0.006064 -0.002367 -0.003488 -0.001743 0.001858 -0.004936 0.001728 -0.005168 -0.003695 0.000892 -0.001819 -0.004912 0.000767 0.004774 0.000384 -0.004067 0.000883 0.001168 0.004993 0.00452 0.000882 -0.001972 0.000443 -0.002665 0.002934 0.00531 -0.00296 -0.002368 0.00128 0.003315 -0.003168 -0.005929 0.000188 -0.006012 -0.001392 -0.005115 -0.004566 0.000163 -0.004574 0.00573 0.004191 -0.003673 -0.004778 -0.003395 0.005097 0.002611 0.003159 0.001702
for 0.002113 -0.005086 0.004098 0.002591 -0.002306 -0.002314 0.001097 0.001409 0.006051 0.003687 -0.002001 -0.005418 -0.002371 0.001181 -0.001623 -0.005527 -0.004499 0.001216 0.004751 -0.004289 -0.004547 0.000812 -0.002383 0.005551 -0.003221 -0.002009 -0.002779 0.002432 -0.005524 0.000784 0.004921 0.00079 -0.001847 0.000556 -0.002037 0.000784 0.004798 -0.005234 -0.002693 -0.005105 -0.003032 0.005517 -0.004912 0.00245 0.003905 -0.005067 -0.002098 -0.004501 -0.0041 0.004613 -0.00543 0.005452 -0.00019 0.00424 -0.003845 -0.000725 0.001307 0.001744 0.004729 -0.003977 0.001182 0.004084 0.001825 -0.000357 0.005453 0.003462 -0.002271 0.002883 0.006241 0.002793 -0.005297 0.003671 0.00157 0.005329 -0.002954 -0.001353 -0.000194 0.001917 -0.000755 -0.006152
confirm -0.002699 0.003622 -0.001824 0.005729 0.001726 -0.001838 0.005385 0.003532 0.003677 -0.001424 -0.003753 -0.000403 -0.002788 -0.0006 0.003341 0.001811 0.001448 0.005239 -0.005475 0.00549 -0.001527 -0.002998 -0.002042 -0.00544 -0.00314 0.004017 -0.001832 -0.005042 -0.001061 -0.003459 0.002846 -0.005964 -0.002639 -0.001137 0.005862 0.002924 -0.001699 -0.00535 0.004555 0.002462 -0.00208 -0.005866 -0.001329 0.003662 0.002781 0.002945 -0.004505 0.000476 -0.002519 0.003566 -0.001497 -0.001363 0.002682 0.003347 0.00453 0.00087 -0.004294 0.005614 -0.002585 0.002634 -0.000976 -0.003143 -0.002813 0.002812 0.002869 -0.001531 0.000134 0.00305 -0.004126 -0.001617 0.00234 0.004855 -0.005725 -0.00462 0.003319 -2.6e-05 0.00111 -0.000824 -0.000234 -0.005269
giving 0.003476 0.001067 0.002299 -0.004691 0.005792 0.000544 0.002728 0.001555 0.001647 0.001252 0.005949 8.1e-05 -0.000437 0.002296 -0.003377 0.003083 -0.001238 0.003174 0.000237 0.000626 0.001252 -0.003077 0.002369 0.004918 0.001486 -0.003849 0.005737 -0.000284 -0.003971 -0.004364 0.00301 0.006007 -0.004875 0.005728 0.004208 0.005897 0.004485 -0.006388 -0.003831 -0.006313 0.001613 0.004426 0.002686 0.00049 0.001922 -0.00469 0.002554 -0.005713 0.000883 0.001723 -0.003725 -0.003568 0.001136 0.004588 -0.003729 0.000523 0.00413 0.003217 0.003436 -0.003989 0.003539 -0.004065 0.005557 -0.004849 -0.002157 -0.00409 0.003383 -0.004745 -0.000437 -0.003413 0.002247 -0.005123 -0.000762 0.002835 0.004101 0.004962 -0.00334 0.001839 0.001693 0.002046
there 0.000757 -0.00547 0.002528 -0.004338 -0.004475 -0.003319 0.003682 0.005452 -0.002486 0.003635 -0.002073 0.003283 0.002858 0.004171 -0.004384 -0.00105 -0.003024 0.00238 0.003551 0.001752 0.004323 -0.001986 -0.002017 -0.005911 0.001615 -0.002514 0.001396 0.000799 0.002261 -0.003774 0.000381 0.00543 -0.004268 0.004098 -0.001286 -0.001884 -0.005433 0.005407 -0.005052 0.002086 0.000978 -0.002833 0.002859 -0.005885 0.002159 0.003061 0.00276 -0.004697 -0.006182 0.002816 0.003691 -0.002734 -6e-05 -0.004588 -0.000426 -0.00062 -0.005748 0.003112 -0.00531 -0.001284 0.000648 -0.004977 0.004793 -0.002597 0.002006 0.000769 0.001024 0.004772 -0.005305 0.006276 -0.00399 0.003543 -0.001505 0.000453 0.005558 -0.000574 0.00123 -0.006178 0.000725 0.000615
maybe -0.004741 0.005534 0.00348 0.004135 -0.001065 -0.005845 0.005365 0.002117 0.001051 0.005606 0.001163 0.00167 -0.003173 -0.005362 0.005017 -0.000947 0.002276 0.003458 0.006278 -0.002392 0.004168 0.000748 -0.004166 0.003168 -0.003844 -0.0042 0.003093 -0.00186 -0.006135 -0.001348 0.001966 0.004232 0.001727 0.001433 -0.003948 0.006061 -0.000963 0.005025 -0.001686 -0.002143 -0.001326 -0.003656 0.000631 -0.000612 -0.00199 -0.005523 -0.003929 0.001794 -0.001604 -0.001024 0.002476 0.000505 5.9e-05 0.003143 0.003597 -0.000959 -0.002985 0.004975 0.002321 -0.002322 0.004488 0.00135 -0.000632 -0.001052 -0.005097 0.003147 0.001462 0.00112 0.003733 0.001716 0.005827 0.00122 0.002902 -0.005757 0.002498 -0.004107 -0.003852 0.002467 0.002403 0.005647
, -0.001535 0.005976 0.000255 -0.001657 0.005148 0.004182 0.004952 -0.00107 0.002419 -0.002624 -0.003366 -0.001514 0.003007 -0.006309 0.003654 -0.006003 -0.00232 0.00487 -0.001983 0.002384 -0.002971 0.004488 0.002154 -0.001473 0.001293 -0.002749 -0.00161 -0.003267 0.002001 0.006114 0.002206 0.006221 -0.001212 0.006128 0.003647 0.003815 0.004864 -0.00149 0.004304 -0.005272 0.004717 0.000337 0.001942 0.00232 0.00614 -0.004894 0.003586 -0.000939 -0.001161 -0.004878 -0.005891 -1.3e-05 0.003593 0.004181 -0.003413 -0.00115 -0.000382 0.003388 0.001732 -0.002078 -0.000956 -0.001818 -0.005551 -0.005269 -0.002781 -0.005767 -0.002488 -0.003166 -0.000523 -0.000449 -0.004513 0.00059 -0.002342 -0.000931 -0.004394 0.000778 -0.001026 -0.00601 0.000102 0.002959
. -0.001795 0.005034 0.001505 -0.003442 -0.000415 -0.004063 -0.005091 0.001868 -0.004516 -0.006077 -0.003396 0.000971 0.002533 -0.00026 0.003807 0.001284 -0.002684 0.006187 0.004959 0.003549 0.000929 0.000241 -0.005695 -0.003986 0.004001 0.001682 -0.005799 0.004093 0.000669 0.004504 -0.000862 -0.002281 -0.00554 -0.000206 -0.000857 -7.1e-05 -0.005261 0.004559 0.004296 -0.002727 0.003031 0.001103 -0.000303 0.004396 -0.000994 0.002173 0.001966 -0.00574 0.000568 0.003046 -0.003203 0.001179 0.005165 0.001402 0.003073 0.000667 0.001593 -0.000609 0.002633 0.005197 -0.004547 0.003059 -0.000999 0.004904 -0.004662 -0.001651 0.001078 -0.000835 0.005133 0.005075 0.002904 0.001023 0.004245 -0.00545 -0.004076 -0.000234 -0.003974 0.004653 0.005211 -0.005603
looking 0.000602 0.001095 0.00204 0.004837 -0.001209 -0.000862 0.005554 -0.00365 -0.005286 -0.003061 -0.003741 0.004411 0.000481 0.00601 -0.001618 -0.004912 0.000637 -0.000869 -0.001925 0.004754 -0.004536 0.005157 0.000431 -0.005114 0.002621 -0.004068 -0.000503 -0.003365 -0.001262 -0.002084 -0.004329 0.000216 -0.001637 0.006278 -0.00499 -0.00282 -0.005627 0.000418 -0.003648 -0.00079 -0.004117 -0.003698 -0.005811 -0.001943 -0.004021 0.00231 -0.00097 0.000764 -0.001264 0.000728 -3.6e-05 -0.002002 0.00447 -0.003058 -0.002155 -0.00618 -0.005298 -0.002172 -0.004381 0.000421 -0.005314 -0.003157 -0.0036 0.003713 0.003707 0.000129 -3.4e-05 -0.005088 0.005542 0.00361 0.004808 -0.000752 -0.002645 -0.000995 -0.001976 -0.000113 -0.002239 -0.003716 0.004853 -0.00184
to -0.000324 0.006032 -0.003204 -0.005873 -0.006382 0.006005 0.004242 -0.005367 -6.6e-05 -0.000303 -0.005326 -0.000719 0.005242 -0.006069 0.004942 0.004361 0.001488 -0.003126 -0.000891 0.000982 -0.005006 -0.005116 0.004414 0.001652 -0.001176 -0.00358 -0.001872 0.003965 -0.000619 -0.003668 0.000848 0.004205 0.000266 -0.003062 -0.004924 0.003506 -0.004591 0.00075 0.005195 -0.003542 0.00159 -0.003171 -0.005105 -0.005291 -0.001968 -0.002107 -0.003002 -0.003954 -0.001866 -0.002952 0.001487 -0.005943 -0.00352 -0.005307 0.004774 -9.7e-05 -0.005354 0.002297 -0.00011 0.003763 -0.005198 -0.003798 0.005854 0.003334 -0.002386 -0.00322 -0.000719 -0.003844 0.004576 0.004989 -0.005577 -0.001575 -0.004606 0.004666 -0.001028 0.001873 0.002873 0.004312 -0.003214 0.002349
interested -0.004332 0.003265 0.000224 0.002555 0.002119 -0.003931 0.00207 -0.003138 0.00191 -0.002985 0.001942 0.001723 0.001311 -0.006206 -0.003503 -0.003966 -0.003895 0.001645 -0.005879 0.000689 -0.006062 -0.002824 -0.004285 0.005825 0.003052 -0.006194 -0.004763 -0.005212 0.000379 0.003206 -0.004792 0.006258 -0.003412 0.004613 0.000715 0.002915 0.003425 0.004195 -0.002218 -0.000174 0.0055 0.000448 -0.001819 -0.004928 0.00625 -0.005249 0.003717 0.000861 -0.001225 0.000504 -0.004914 -0.002521 -0.000787 0.006061 -0.003434 0.004204 -0.000573 0.001719 0.001613 -0.004777 0.000812 -0.002644 -0.000612 0.002741 0.001411 -0.005697 -0.001989 0.003866 -0.0022 -0.001202 0.00438 0.002054 0.00433 0.005921 -0.001918 -0.004826 0.005424 0.004563 -0.000606 0.002436
location 0.002093 -0.000558 -0.005673 0.005784 0.000174 0.000101 -0.005737 -0.004394 -0.004475 0.00193 0.005837 0.006107 0.002494 0.006136 -0.002814 0.00469 0.003273 -0.00281 -0.002611 0.00105 0.001919 -0.004944 0.000425 -0.002141 0.003763 -0.002371 0.001536 0.001641 -0.005749 -9.5e-05 -0.002813 0.000726 -0.004468 -0.004614 -0.001558 -0.004709 -0.003726 0.004498 -0.000419 0.001022 -0.001765 0.003469 -0.006256 -0.005823 0.003381 -0.005509 -0.002641 -0.003668 -0.00325 0.00148 0.003067 -0.00257 -0.003499 0.005766 0.000304 -0.004618 0.005577 0.002211 0.000728 0.001497 0.00164 0.003819 -0.000125 0.005028 -0.003698 0.001165 -0.002368 -0.002443 0.001502 0.005809 -0.003413 0.002162 0.0056 -0.005411 -0.001923 0.006106 0.001461 -0.000975 -0.004274 -0.001793
stars 0.004801 -0.002323 0.00143 -0.001458 0.001353 0.005783 0.000152 0.000507 -0.00374 0.000292 0.00587 -0.003507 0.001529 0.002656 -0.005168 0.005193 -0.005209 -0.004596 -0.0058 0.001815 -0.000743 5.2e-05 -0.003546 0.003487 0.004833 0.00276 0.001954 0.000151 0.003793 -0.00306 -0.001036 -0.00489 -0.00447 0.000604 -0.004667 0.00432 0.004797 -0.001024 0.001527 -0.003468 -0.001326 0.000933 0.002741 0.00339 0.005838 0.003365 -0.002041 -0.004957 -0.002032 -0.005155 0.003864 -0.005907 -0.00224 0.000516 -0.002954 -0.00306 -0.005339 0.003699 0.003442 -4.9e-05 0.002225 -0.003046 0.002954 0.005397 0.002412 0.002604 -0.005989 0.005429 -0.004341 -0.004182 -0.005406 -0.005662 -0.00121 0.004084 -0.005829 0.002688 0.002472 -0.003209 0.002856 -0.000418
you 0.006173 -0.000152 -0.004842 0.005934 -0.000384 0.004287 -0.004723 -0.00123 0.006101 0.001757 0.000452 -0.004407 -0.002472 0.003075 -0.00575 -0.002009 -0.005074 -0.004657 -0.004907 0.004448 -0.005954 -0.001896 -0.004373 0.000714 -0.00483 -0.000801 -0.001836 -0.003359 0.002827 0.00182 0.002065 -0.000481 -0.005663 0.004211 -0.005306 0.001685 0.00308 0.001383 -0.005983 0.001559 -0.004337 -0.001515 0.001144 0.003004 -0.004358 0.00273 -0.001697 -4.5e-05 0.005443 -0.004657 -0.004708 0.002679 0.004108 -0.001112 -0.00316 -0.005285 -0.00345 0.005836 -0.001546 -0.006095 -0.006033 0.004818 0.003128 -0.002353 0.003491 0.000342 0.004722 -0.0056 -0.005712 -7.7e-05 0.000234 -0.004421 -0.00293 0.002993 0.004159 -0.002514 0.005377 0.001399 0.002732 0.00615
: 0.000532 0.00218 -0.002806 0.004803 0.00062 0.00368 0.005393 0.000736 -0.002053 -0.000313 -0.001861 0.001562 -0.001272 0.003399 0.00081 0.005284 0.000873 -0.003583 -0.004076 -0.005459 -0.001705 0.001172 0.001426 0.006226 0.003684 0.00407 0.001722 -0.004262 -0.002361 -0.000327 0.001833 0.002424 -0.003541 0.003279 0.006192 0.004217 0.001021 -0.000976 0.002373 -0.000605 -0.003811 -0.001295 -0.001877 -0.004769 0.000299 -0.000705 -0.004994 0.001972 0.002953 -0.006127 -0.000254 -0.005659 0.003697 0.00117 0.000489 -0.000679 0.002824 0.005443 -0.004486 -0.003508 0.000807 -0.006042 -0.004276 -0.004389 -0.002931 -0.000541 0.000957 0.005273 -0.003298 -0.002804 0.000842 0.005875 0.003457 0.0008 0.00037 0.001645 -6.6e-05 0.001825 0.003045 0.003582
? 0.002516 0.002148 0.005078 0.000395 -0.005741 0.00433 -0.002134 -0.004666 -0.002391 0.003481 -0.004272 -0.003132 -0.005582 -0.002764 0.0044 -0.004759 -0.003397 -0.001084 0.002583 -0.001251 0.000491 -0.005587 0.000195 0.004315 0.002318 -0.006391 -0.006204 0.001086 0.003065 0.001473 0.001091 -0.002094 -0.001591 -0.00264 -0.004159 0.002538 -0.002934 -0.004246 0.003403 0.004859 -0.00121 -0.004534 0.002372 -0.003041 -0.003103 -0.005137 0.003642 -0.001279 0.005932 0.002362 -0.003142 -0.003484 -0.004564 0.005985 0.002567 -0.00181 0.002491 -0.004446 0.001571 -0.001493 0.002679 -0.001428 0.001514 -0.004493 -0.002463 -0.00219 -0.002653 -0.001732 -0.003672 0.000984 -0.001945 -0.000119 0.002439 0.000779 -0.006201 0.003819 -0.000924 0.000621 -0.001466 0.003945
SLOT_LOCATION -0.003402 0.005232 0.001624 -0.000526 0.00425 0.001325 -0.001027 0.003008 -0.004057 0.003582 0.00251 0.004675 0.003766 -0.005334 0.004075 0.001009 0.002803 -0.004961 0.005811 -0.001219 -0.003054 0.001178 0.004419 0.004485 -0.001764 0.004844 -0.003513 -0.004288 0.002118 -0.002885 0.003695 0.003474 -0.000646 0.002871 0.000999 0.003708 0.004197 -0.005848 0.002403 9.3e-05 -0.004473 0.003679 0.004956 0.002541 -0.00432 -0.002973 0.001083 0.001065 -0.002439 -0.003553 0.002113 -0.002006 0.000971 0.004023 0.005514 0.000361 0.004178 -6.7e-05 -0.005495 0.003529 -0.004947 1e-06 -0.003598 -0.003496 0.000306 -0.001355 -0.004378 0.005398 0.000611 0.001947 0.00064 -0.004587 0.005153 0.003026 0.005366 0.004377 0.005468 0.004616 -0.003426 0.004406
good -0.001157 0.00445 0.001276 -0.001064 -0.004896 0.003418 -0.004146 -0.005493 0.004431 -0.000835 0.00363 0.005306 -5.9e-05 -5.3e-05 -0.005747 -0.002631 -0.002623 0.004145 0.001522 0.004495 0.003878 -0.005768 0.005814 0.003503 -0.005339 0.005361 0.000337 -0.001636 -0.004835 6e-05 -0.003004 -0.004729 0.002303 0.002615 0.004129 0.00098 0.001916 -0.004203 -0.003517 -0.003473 0.00041 -0.005198 -0.004349 0.00418 0.004194 -0.005575 0.001988 0.005921 -0.002933 -0.003117 0.002135 0.00418 -0.0002 0.006212 0.003192 0.002187 0.000541 -0.001486 0.001625 0.000194 -0.001633 -0.000783 -0.000865 -0.006124 0.002916 -0.000234 0.005325 -0.002325 0.002588 -0.006046 0.002431 -0.004981 0.002704 0.000757 -0.005785 -0.000447 -0.001886 0.003059 0.005201 0.005765
's 0.005277 -0.000242 0.003922 -0.005387 -0.003249 0.002325 0.002064 0.004696 -0.00584 -0.00406 0.004431 -0.005409 -0.00033 0.003689 -0.004358 0.002256 -0.003559 -0.002585 0.004602 0.001494 -0.00466 -0.00115 -0.00031 -0.002689 0.005053 -0.005392 -0.005415 -0.004709 -0.003896 0.005815 0.005644 0.002818 0.003678 0.005246 0.005881 -0.003051 0.003321 0.004974 -0.000468 0.005846 0.000182 -0.002419 -0.00218 0.006024 -0.001901 -0.004573 0.000278 -0.000258 0.000408 0.001757 0.000551 0.003693 -0.000921 -0.000214 0.005741 -0.005086 -0.000932 0.000812 -0.000725 -0.003249 0.000124 -0.005615 0.003826 0.003781 -0.003806 -0.000713 -0.00277 -0.000459 -0.002842 0.003475 0.0001 -0.002166 -0.000491 0.002742 0.00602 0.00343 -0.005838 0.005217 0.004043 -0.004206
do 0.002852 0.00415 -0.00586 -0.003093 -0.002828 0.004791 -0.001248 0.000411 -0.000791 0.004839 -0.004007 0.002638 -0.00348 -0.004282 0.002388 -0.003737 0.005307 -0.001156 -0.005683 -0.001544 0.003633 -0.004872 -0.003776 -0.003916 -0.002584 0.001957 0.002287 0.003001 0.000137 -0.000233 0.004584 -0.000251 0.005311 -0.003359 0.000386 0.001677 0.004048 -0.006086 0.005413 -0.004568 -0.003625 0.002624 0.003349 -0.003829 -0.004092 -0.006156 -0.000349 -0.002624 0.003564 -0.001883 0.004275 -0.004423 0.005358 0.000596 -0.00105 0.003102 -0.00289 -0.003802 -0.004887 0.004663 0.003433 -0.004209 0.002374 0.004149 -0.005912 0.001818 -0.006063 -0.006174 0.004838 0.003542 -0.002519 -0.004373 0.000688 -0.000235 -0.005701 0.003002 0.003149 0.00387 -0.004527 0.003984
that 0.00184 -0.004619 -0.005737 0.002752 0.00593 -0.003015 0.004382 0.000496 -0.005544 0.002525 0.003729 0.004352 -0.005151 -0.001858 -0.005339 -0.000455 0.004301 -0.005422 -0.002773 0.003262 -0.002213 0.002727 -0.001661 -0.002274 0.002323 -0.001592 0.001705 4.1e-05 -0.000265 -0.00107 -0.001489 0.005384 0.005437 0.002773 -0.002055 -0.005363 0.001156 0.004535 0.004152 -0.001984 0.004906 -0.000655 0.002874 -0.000691 0.002921 0.003697 -0.005596 0.005074 0.005045 0.000107 0.005378 -0.004699 0.003444 -0.003021 0.005275 0.002684 -0.003227 -0.002113 -0.003586 -0.003149 0.002405 0.00315 0.001283 -0.000559 -0.001187 -0.001076 0.005427 -0.000626 -0.005603 -0.00254 -0.002781 0.006035 -0.003276 0.005246 -0.004118 0.002152 0.000899 -0.00296 0.002514 -0.003483
food 0.006394 0.003248 -0.000136 0.00194 0.004534 0.00284 -0.002163 -0.001605 0.002669 0.00123 0.00299 0.000642 -0.002822 -0.00502 0.001197 -0.005756 0.000453 0.002948 -8.1e-05 0.000111 -0.00429 -0.000787 -0.00341 -0.005704 0.002742 -0.001519 0.000805 0.001274 -0.006068 0.003307 -0.00632 0.000744 0.004694 0.005742 0.000617 -0.00353 0.002437 0.00256 -0.001802 -0.003554 0.001323 0.004409 -0.004969 0.002599 -0.002937 -0.0023 -0.000834 -0.003266 -0.001499 -0.002108 -0.001715 -0.000592 0.002294 -0.001317 -0.003999 0.003434 0.00619 0.001883 0.005088 -0.003191 0.003177 0.002424 -0.002148 -0.003877 -0.002553 -0.000611 0.004606 -0.006111 -0.000598 0.005627 -0.002318 0.004091 0.00345 0.006111 -0.000998 0.004782 0.000248 -0.003911 0.006238 0.004076
prefer 0.003963 -0.004361 -0.001236 -0.005154 0.002763 -0.005428 0.001 0.003364 -0.000245 -0.003624 0.005356 0.001439 -0.003302 -0.004916 0.005211 -0.001704 0.003122 -0.00269 0.002448 0.000209 0.005111 -0.002104 -0.00443 -0.001467 -0.003217 0.004224 0.0061 -0.005448 0.000592 0.006121 -0.004368 -0.004959 0.001315 0.005851 0.000568 -0.004462 0.005919 -0.002434 -0.003196 -0.004118 0.006212 -0.00265 0.000913 -0.005271 -0.00034 0.001377 0.004328 -0.000843 0.00398 -0.005973 -0.005689 0.001937 0.002742 0.000118 -0.004577 -0.004052 0.005045 -0.00272 -0.00489 -0.002786 -0.000982 -0.000961 -0.004409 0.003459 -0.004862 0.004589 -0.001243 0.003864 -0.000201 -0.001935 -0.005799 -0.003142 -0.004286 0.004871 0.002502 -0.003998 -0.000263 0.003806 -0.002591 -0.00073
about -0.002181 0.004865 -0.002198 0.00242 -0.000896 -0.001204 0.003211 0.004961 0.002611 0.001114 0.005119 -0.004162 -0.002708 -0.006157 -0.005968 0.005097 0.003126 0.001958 -0.001188 0.001253 -0.002902 -0.002234 -0.001502 0.006127 -0.001065 -0.00569 0.00536 0.001904 0.005001 0.00146 0.004806 0.002946 -0.005494 -0.005318 -0.005515 -0.00554 -0.005324 0.004867 0.001404 -0.006241 0.001165 0.004996 0.00441 -0.002275 0.001798 0.006007 -0.000702 0.006092 -0.001382 0.005045 0.005833 -0.002209 0.002496 -0.002461 -0.000764 0.004709 0.004679 -0.003952 0.004681 -0.003666 0.003015 0.004666 -0.005808 0.003389 0.003541 -0.006097 -0.003348 -0.000922 -0.002869 -0.00283 0.002208 0.001959 -0.004533 -0.005135 0.002137 -0.000643 -0.001376 0.000722 -0.001849 -0.002317
here -0.003792 -0.001274 -0.000631 -0.003257 0.001851 -0.001598 0.003169 0.003892 -0.000806 -0.000913 -0.001462 0.003523 0.00215 -0.004685 0.004455 0.005989 9.1e-05 -0.00446 -0.000528 -0.003021 -0.006026 0.005203 -0.002725 -0.003389 0.002394 -0.004099 0.00385 0.005908 0.00113 0.00526 -0.004735 -0.002199 0.00313 0.003223 0.002703 0.006047 0.002437 0.003388 0.000462 -0.003918 -0.004188 -0.004704 -0.004503 -0.00575 0.003605 -0.000599 0.004111 0.004844 -0.001218 0.00022 -0.006087 0.002282 -0.004242 0.006168 0.003408 -0.005132 -0.006062 0.003046 -0.005301 0.000826 -0.006048 0.000641 0.000142 0.000777 -0.001819 0.002347 -0.003052 -0.003281 0.004298 0.003982 0.005783 -0.003486 0.005115 0.005665 -0.003796 0.003881 -0.000618 -0.004608 -0.00325 -0.0052
sorry 0.005506 -0.005682 -0.000934 -0.004316 -4.7e-05 0.000713 0.002808 -0.000775 -0.001767 -0.000422 -0.00357 0.003907 -0.003687 -0.000677 0.005473 0.004714 -0.000518 0.005616 0.003275 0.002278 0.004707 -0.005637 -0.003147 0.00509 0.003628 0.003432 -0.005168 0.006272 0.003584 -7.9e-05 -0.004484 8e-05 -0.002345 0.001199 0.00479 -0.004051 -0.002981 -0.003564 -0.000801 -0.001173 -0.004226 -0.000125 0.003367 0.005705 0.002271 0.003393 0.004973 0.005657 -4.7e-05 0.002698 0.003259 0.003423 0.004244 -0.002476 -0.001714 -0.00619 -0.006068 0.004984 -0.003658 -0.004896 -0.00208 -0.003926 0.002423 -0.006188 0.000856 0.004749 -0.005966 0.003232 -0.005722 -0.002106 0.005685 -0.00212 0.001823 -0.001811 -0.000478 -0.004947 0.002389 -0.00587 0.002617 -0.000683
let 0.006302 -0.001411 0.001389 0.00586 0.003838 0.000745 -0.004175 0.005083 0.00204 -0.00106 -0.001636 0.00372 -0.002753 -0.001483 -0.000252 0.00157 -0.002417 0.000312 -0.001815 -0.005133 -0.003643 -0.004925 0.002512 -0.001558 -0.000462 -0.006181 0.005072 0.002478 0.002065 0.00312 0.000974 0.004441 0.004617 0.002686 0.005477 0.00438 -0.005692 0.002746 0.001922 -0.00566 -0.004458 -0.004006 0.002005 -0.000776 -0.001607 -0.00251 -0.005233 0.000896 0.001929 0.004722 -0.003637 -0.002644 0.003859 0.004807 -0.003377 -0.002694 -0.005522 -0.005464 0.004203 0.004575 0.001786 0.003313 -0.001789 0.00557 0.000783 0.003015 -0.003942 0.003863 -0.002475 -0.005311 0.003421 0.001632 0.004906 0.004292 0.001665 -0.004872 -0.004061 0.00092 0.003891 -0.005912
a 0.001195 -0.001288 0.00184 0.002228 -0.00365 -0.00582 -0.002985 -0.002466 0.004323 0.004369 -0.000843 0.000229 -0.002349 0.002004 0.00447 0.001359 0.002298 0.005006 0.004287 7.7e-05 -0.003005 0.00619 0.002885 0.004925 0.000686 -0.002137 0.001997 -0.004873 0.005345 0.00355 -0.00396 0.000724 -0.002077 -0.00247 -0.006153 -0.001098 -0.002216 0.002358 0.00201 -0.002599 0.001009 0.00248 -0.004935 0.006201 -0.002397 0.000656 0.001024 0.001262 0.004624 0.000663 0.000227 -0.001858 0.001277 -0.004463 0.002092 0.003401 0.00212 -0.003681 0.004296 -0.001507 -0.003693 0.003036 0.00402 -0.00378 0.00205 0.001435 -0.003036 0.000693 -0.001458 -0.001809 -0.000311 -0.002559 -0.004211 0.000409 -0.003544 0.005841 0.002207 0.000887 0.000355 0.006139
address 0.005627 -0.002371 0.001387 -0.005056 -0.002954 -0.005207 0.004361 0.000442 0.001392 -0.005851 0.003363 0.002707 0.003684 -0.001595 0.003046 0.006045 0.005412 0.00446 0.005043 -0.005227 -0.003438 -0.002549 -0.006012 0.005441 -0.004253 -0.003402 0.000491 -0.000196 -0.005962 0.001563 0.002594 0.005084 0.003684 0.000367 0.001585 0.000174 0.00053 -0.001329 -0.00327 -0.005151 -0.000401 0.00539 0.004258 -0.00217 -0.003726 -0.002668 -0.004657 -0.002057 -0.005869 -0.004109 0.005589 0.002732 -0.005625 -0.005436 -0.001875 0.002778 0.004616 0.003852 0.003239 0.002863 0.000705 1.6e-05 0.005086 0.001912 -0.004275 0.005623 -0.004253 0.004791 0.002886 0.00188 0.005344 -0.000391 0.005511 -0.002865 0.005014 -0.004675 -0.001314 -0.00217 0.00339 0.000514
not 0.004054 0.006058 0.002164 0.001083 -0.006049 0.00445 -0.004143 0.00012 -0.006222 -0.003382 0.0019 -0.004662 -0.00283 -0.004145 -0.003931 -0.002623 0.005517 -0.003603 0.002677 -0.000475 -0.006247 -0.005151 0.000132 -0.000257 0.005198 -0.002851 -0.006063 0.004998 -0.001123 0.005434 -0.000943 0.001242 0.000814 -0.000858 0.003714 -0.003916 -0.000471 0.005649 0.00135 0.001838 0.002045 -0.005833 -0.001975 0.004679 0.001638 0.002176 -0.002242 0.001604 -0.004825 -0.000176 -0.000268 -0.005213 -0.003971 0.003088 0.005794 -0.000178 0.000145 0.000194 -0.005485 -0.002564 -0.001086 0.002252 -0.003053 0.00123 -0.004156 -0.003701 -0.003227 0.003116 -0.002576 0.001067 0.004572 -0.003869 -0.004843 -0.003618 0.00581 0.00236 -0.00297 -0.006125 0.005289 0.003696
SLOT_TIME -0.002765 -0.002897 0.003285 -0.006224 -0.001751 0.003517 -0.003893 0.002384 -0.000466 0.004067 -0.00105 -0.005838 0.001736 0.001944 0.006059 -0.005272 -0.002728 0.00575 -0.003885 0.000743 0.001899 0.003954 0.000197 -0.000386 0.005955 -0.005879 -0.001055 -0.001189 0.000847 0.004736 -0.004709 -0.001397 -0.00224 0.005446 -0.004059 -0.003409 0.000713 0.004217 0.00303 -0.000346 -0.000598 0.001838 0.003918 -0.006112 0.000657 -0.000786 0.006321 -0.002957 0.003297 -0.002819 -0.00429 0.003733 0.002401 0.000632 -0.005704 -0.004029 -0.002029 -0.002188 -0.003306 -0.00421 -0.00267 0.004695 -0.002747 0.000217 -0.005446 -0.001289 0.004716 -0.003437 0.005789 0.001914 9.6e-05 0.003819 -0.000617 0.005327 -0.00567 0.00633 -0.002059 0.005027 0.004166 0.003146
one -0.003794 0.005445 -0.004109 0.002311 0.000522 -0.000532 -0.003315 -0.00046 -0.00406 0.001251 0.002095 -0.005779 0.001272 0.003425 0.004971 -0.001355 0.003009 -0.002054 -0.005727 0.00022 -0.006054 -0.002501 -0.004116 0.006199 0.005965 -0.005034 -0.00397 0.006243 -0.005466 -0.000593 -0.005343 -0.003414 0.004953 0.004973 0.001007 0.001798 -0.004144 -0.005859 -0.006106 -0.006324 -0.004155 -0.002872 -0.002004 0.004107 0.004807 -0.004082 0.003923 -0.003985 0.00223 0.00156 0.000181 -0.002452 -0.000206 0.000402 -0.005266 -0.000931 -0.004559 -0.00148 0.000388 -0.004964 0.003732 -0.000449 0.004763 0.004445 -0.00121 0.003538 -0.001097 -0.001523 0.006171 0.002649 -0.002886 -0.005926 0.000731 -0.002168 -0.006368 -0.003924 0.003114 0.000796 0.003451 -0.001889
why 0.000526 0.004813 -0.003287 0.003621 -0.004222 0.003042 -0.000721 -0.004394 -0.000799 0.004485 0.003389 -0.005552 0.002544 0.003317 -0.001365 0.003981 -0.006263 -0.002923 0.005134 0.0059 0.004296 -0.003027 0.003981 -0.001913 -0.003196 -0.002194 -0.001925 0.000453 -0.004711 0.002334 -0.006281 -0.000482 -0.003016 0.00103 0.001003 0.000188 0.005738 -0.003684 0.005383 -0.00372 0.004196 0.00514 0.004701 -0.005818 0.002231 0.005726 0.003411 -0.002003 -0.00286 0.004372 -0.002804 -0.001625 0.005119 0.004995 0.005005 -1.4e-05 -0.002908 0.000864 0.004943 0.005613 0.004204 -0.005475 0.000938 0.000126 0.00217 -0.00448 -0.003531 0.00393 0.005825 -0.000231 0.001412 0.004247 -0.006188 0.0031 -2.3e-05 0.005006 -0.002607 0.005378 -0.005008 0.004957
SLOT_RATING 0.003479 -0.003766 -0.003448 0.000404 -0.005776 -0.001484 0.00118 0.001066 0.002072 -0.002192 0.005032 0.002449 0.004282 0.004446 0.002635 -0.002705 -0.003122 -0.000642 0.001017 -0.000375 0.005784 -0.002634 -0.000431 0.005534 0.002427 0.003896 -0.000719 -0.00249 -0.005016 -0.003854 0.003787 -0.00339 0.002994 0.003426 -0.001726 0.00257 -0.005572 0.002941 0.003386 0.00391 0.00264 -0.000183 -0.003577 0.005297 0.003056 -0.005851 0.00542 -0.00182 -0.000574 -0.004733 0.001282 -0.000473 -0.001939 -0.001881 0.004339 -0.001549 -0.002145 -0.000612 0.002779 -0.004033 -0.000496 -0.002815 -0.005131 0.000547 0.005061 0.005947 -0.005491 -0.004369 0.005963 -0.000599 0.004651 -0.005628 -0.002273 0.003625 0.001976 0.005797 -0.005909 0.00149 0.001693 -0.004174
me -0.004138 0.005349 0.006241 -0.005733 -0.001027 0.000765 -0.001079 -0.000632 0.004012 -0.001743 -0.002564 0.000957 -0.005009 0.000533 0.001147 0.005908 -0.004326 0.001344 -0.00089 0.002053 -0.006327 0.005252 -0.003469 -1.4e-05 0.002854 -5.3e-05 0.003972 -0.001371 -0.002145 0.000466 -0.004537 -0.003476 0.001827 0.003562 -0.000583 -0.000275 -0.00452 0.00239 -0.001578 0.001 -0.005237 -0.002281 0.001827 0.000421 0.002424 -0.005563 0.004204 -0.003024 0.00405 -0.002291 0.003399 -0.001919 0.000397 0.004183 -0.005395 0.002732 0.002567 0.00167 -0.0057 -0.003763 0.001209 0.002209 -0.001026 -0.004622 0.002958 -0.005526 -0.004443 -0.000739 0.004842 -0.001326 -0.001386 -0.000401 -0.004919 -0.005091 -0.005135 0.005948 -0.001225 -0.005817 -0.005612 0.002504
great -0.0055 0.004556 -0.002738 -0.001076 -0.001645 -0.005003 0.003827 -0.005715 0.004559 0.000147 0.004242 0.001994 0.00184 -0.003506 0.002274 -0.002063 0.005676 -0.005889 0.002851 -0.001438 0.004177 -0.004703 0.004564 -0.000713 0.006068 0.001434 -0.004803 0.00072 -0.003848 0.001018 -0.003291 -0.001971 -0.006214 1.3e-05 0.001635 0.002759 -0.003924 -0.003986 -0.004489 -0.003681 -0.004048 -0.002789 -0.005049 -0.005967 0.002456 0.002762 0.002902 0.001854 -0.006255 -0.00569 -0.005039 0.000891 -3.8e-05 -0.00254 -0.0011 -0.001643 -0.000403 0.004286 0.00071 -0.000993 -0.002722 -0.003872 0.005583 -0.001085 -0.002364 0.005699 0.003312 0.001329 -0.002451 0.001648 -0.001421 -0.004492 0.003085 0.005705 0.004348 -0.005188 -0.003363 -0.00158 -0.003036 -0.002468
like -0.003218 0.002705 -0.000851 0.000612 -0.002508 -0.005158 0.006051 0.000375 -0.005131 -0.004937 0.005793 -0.004839 -0.002916 -0.004464 -0.001771 -3.7e-05 0.001615 -0.006042 -0.005021 -0.000936 -0.004088 0.000661 -0.001026 -0.004536 -0.00098 0.002836 0.006135 3.3e-05 -0.003138 -0.004154 0.001674 0.001784 0.001975 -0.002511 -0.0014 -0.002959 -0.004635 0.002893 -0.00117 -0.001571 -0.003431 -0.003089 0.002695 -0.003146 0.002801 -0.000968 0.002876 -0.004406 0.003741 -0.003163 -0.000692 -0.002389 -0.005274 -0.005386 -0.005956 0.006176 0.002138 -0.001336 0.002651 0.003118 -0.001522 -0.002463 0.003676 0.002798 0.001786 -0.001869 -0.001993 -0.000125 0.003905 -0.002085 -0.001627 0.000396 0.005118 0.00093 -0.004708 -0.004064 0.003997 0.006115 -0.00469 0.003057
restaurant 0.005539 -0.004813 0.003895 -0.002899 -0.005402 0.000198 -0.002378 -0.005449 -0.005293 0.000291 -0.00174 -0.004619 -0.001405 0.00564 0.003445 0.003011 -0.001546 0.005245 0.001931 -0.004622 0.005301 0.001817 0.000594 -0.003982 -0.005041 -0.003212 0.000119 -0.001686 0.002282 -0.004203 -0.000494 0.001102 0.002935 -0.002928 -0.00506 -0.000556 -0.005336 -0.00415 -0.004364 0.001016 -0.001112 0.003315 -0.005384 0.005069 -0.003875 -0.000525 -0.003113 0.005893 -0.004374 -0.002867 -0.000781 0.004867 0.005864 -0.002326 0.002164 0.002594 0.00167 -0.003563 -0.001393 0.000302 -0.003953 0.004761 0.002857 -0.000487 0.005067 -0.003459 0.002124 -0.00455 -0.003824 0.002121 0.000736 0.00053 0.00205 0.004328 0.001438 0.00542 0.001964 -0.000948 0.002638 -0.000214
i 0.00537 -0.005497 0.000247 -0.003888 -0.00229 0.000957 -0.000359 -0.004573 0.005706 0.005103 -0.00242 0.002103 -0.003938 0.003829 -0.003689 0.00109 -0.005108 0.00378 0.003723 0.006171 -0.00425 0.003866 0.003885 0.003362 -0.004871 -0.000335 0.005329 0.003966 -0.004632 -0.000922 -0.000429 -0.000543 0.001607 -0.005736 -0.002618 0.001499 -0.005706 -0.003854 0.006427 -0.00143 0.002465 0.003139 -5.2e-05 -0.000599 0.004776 -0.001417 0.003515 -0.000429 -0.000398 0.001698 -0.001976 -0.001378 -0.003131 -0.005415 0.003204 0.002268 0.004392 0.003196 0.004057 0.002072 0.005063 -0.000206 0.005938 0.005599 0.002689 0.001611 -9e-05 0.004215 -0.001665 -0.000147 0.006041 0.004937 -0.003974 -0.002287 0.004199 -0.005151 0.001823 -0.000753 -0.000981 -0.000477
of 0.005663 -0.004519 -0.000667 -0.003076 -0.000258 -0.001286 0.005849 0.00063 -0.000923 -0.002871 0.000512 -0.003026 -0.004447 0.004679 -0.002807 -0.000608 -0.004855 -0.00269 -0.001609 0.002739 -0.00619 0.00188 -0.004058 -0.000261 0.002632 -0.004335 0.002197 -0.000907 -0.001212 0.000988 -0.005073 0.004137 -0.002421 -0.001627 0.00012 0.001869 0.002248 0.004383 0.002642 -0.002826 -0.004069 0.001561 0.00243 -0.005823 -0.004391 -0.000541 0.000781 0.001569 0.004904 -0.001008 0.001212 0.005804 -0.002121 -0.006053 -0.001947 -0.005468 -0.006088 -0.001802 -0.006021 0.001887 0.003578 -0.001507 0.004664 -0.002847 0.00295 -0.005395 -0.000292 0.000905 -0.001509 0.002057 -0.00407 0.004735 0.004601 -0.004541 0.004071 0.00023 -0.000659 0.000499 -0.004078 0.004891
SLOT_CATEGORY 0.002178 0.001391 0.004386 -0.005078 0.004694 -0.004042 0.000728 -0.00358 0.00514 -0.005091 -0.004649 -0.004094 -0.004453 -0.002901 0.003254 -0.004122 -0.004891 -0.00035 -0.005551 0.005109 -0.003792 -0.0039 -0.00029 -0.001042 -0.003341 -0.006489 -0.002135 0.004216 0.002103 0.003686 0.002413 0.004899 0.004485 0.00071 -0.003038 0.001934 -0.004663 -0.004619 0.002742 0.002123 0.000801 -0.005573 0.003414 -0.004745 -0.000181 -0.001243 0.003931 -0.003985 0.000612 0.000606 -0.000727 -0.004441 0.005855 -0.003734 -0.004288 0.001936 0.005784 0.001666 0.00151 -0.005507 0.004047 -0.002877 -0.004965 0.005466 0.001522 0.005831 0.003581 -0.004779 -0.003914 -0.005479 -0.00211 -0.002622 0.000795 0.005125 0.003959 0.006277 0.003754 -0.002214 0.002191 -0.005133
no -0.005455 0.001471 -0.004909 0.004123 -0.002449 0.00188 -0.000638 -0.004654 0.005067 -0.005919 -0.004999 0.005471 0.00152 -0.003721 0.004811 0.000101 -0.001867 -0.004908 0.005309 -0.005425 -0.003147 -0.005165 -0.001539 0.005304 -0.002333 -0.006228 -0.00551 0.006433 0.004183 -0.005137 0.006048 -0.005728 0.006161 -0.005237 -0.004669 0.000645 -0.003273 -0.003936 0.005374 0.002821 0.00378 0.004697 -0.003627 0.005606 0.00321 -0.002693 0.002399 0.003209 -0.00149 -0.002209 0.004302 -0.002165 0.002191 0.00149 0.000938 -0.004031 -0.005146 -0.003921 -0.003063 0.000278 -0.005461 -0.003672 -0.005504 0.004489 -0.001226 -0.001389 -0.005009 -0.000545 0.005501 -0.003154 -0.003257 -6.2e-05 -0.004178 -0.001194 -0.003442 -0.005233 0.000984 0.004151 -0.00529 -0.001897
resturant 0.001208 0.004547 0.004357 -0.001535 -0.001048 -0.003563 -0.005676 -0.004466 0.003725 0.004995 1e-06 -0.004769 -0.003765 -0.005421 0.001734 -0.000842 0.002195 -0.002391 -0.00484 -0.003352 0.005424 -0.004932 0.005303 0.003283 0.005823 0.000214 0.000862 -0.001221 -0.000534 0.000853 0.005034 -4.6e-05 -0.000518 -0.001454 -0.000672 -0.000222 -0.001084 0.001517 -0.000561 0.004434 -0.00141 -0.004529 -0.005723 3.4e-05 0.004792 -0.000918 0.005928 -0.000959 0.005587 0.004809 -0.000314 0.005722 0.00471 -0.003471 0.004508 0.003716 0.006118 -0.004245 -0.000966 0.005595 -0.003051 0.00032 0.001611 -0.002045 0.005652 -0.0043 0.002593 -0.000401 -0.004996 -0.003996 -0.006127 -0.004362 0.002977 -0.001874 -0.001447 -0.000447 -0.005352 -0.004133 0.000718 0.00044
try -0.005807 0.001447 0.005494 -0.001552 0.000396 -0.004612 -5.5e-05 -0.005105 3.3e-05 -0.00536 -0.005026 -0.000937 -0.002155 -0.005227 -0.006205 -0.004384 0.00076 0.004886 0.001296 -0.004384 0.000312 0.006075 0.005873 0.003139 0.002234 -0.004989 -0.004154 0.002251 -0.006016 0.001356 -0.004627 6.3e-05 0.000454 -0.000766 -0.000164 0.003047 -0.001384 -0.005441 0.005076 0.000431 0.000798 -0.00101 -0.005231 0.003171 -0.003969 -0.001632 0.00063 -0.005253 -0.002613 0.004755 0.002945 0.000958 0.004353 -0.006151 -0.000682 -0.000896 0.001012 0.003522 -0.003858 -0.0003 0.000482 0.002562 0.001884 -0.004967 0.004783 0.005567 -0.004348 0.003949 -0.001819 -0.000276 0.000705 -0.001707 -0.000716 -0.002713 0.000173 0.004508 0.001109 0.005028 -0.002985 0.001547
did -0.001139 -0.002861 -0.001437 -0.004848 -0.003382 -0.00612 0.004691 -0.005779 0.004692 -0.005862 0.002634 -0.004606 -0.001653 0.005968 -0.005014 0.005281 0.003117 -0.004108 -0.001707 0.003811 -0.00223 0.004929 0.000808 -0.004848 -0.005787 -0.001304 -0.000553 0.003165 0.002459 -0.00111 -0.004031 9.5e-05 0.003831 0.000862 0.004799 0.000194 -0.00058 0.002432 -0.003545 -0.004914 0.002645 0.004293 0.000789 -0.000173 0.005779 0.001249 -0.003015 -0.003018 0.001612 0.006022 0.000153 0.005875 -7.1e-05 -0.005648 0.004 2e-06 0.002417 0.004457 -0.000805 0.002873 0.004324 0.002807 -0.000685 -0.0026 -0.001765 0.005119 -0.003464 0.003431 0.004398 -0.005018 0.002878 0.000596 0.001923 -0.001714 -0.0027 0.003941 -0.004619 0.001718 -9.6e-05 0.004931
SLOT_INFO 0.004565 0.002314 0.005771 0.00076 -0.00518 -0.004722 -0.000771 0.001892 -0.00293 -0.00168 0.003677 -0.001206 0.004696 -0.005514 0.003966 0.004284 0.002853 0.003888 0.004142 0.002927 0.00419 -0.001094 -0.001984 -0.00257 -0.005316 -0.001227 0.006175 -0.003358 -0.005001 -0.00335 0.00168 0.001901 0.005568 0.001004 0.005998 -0.005392 0.000149 -0.002356 0.003039 -0.002532 -0.001545 0.003782 0.005055 0.002322 -0.005545 0.005961 0.005943 -0.001577 0.004574 -0.000233 -0.001078 -0.000171 -0.00596 0.00495 -0.003619 -0.000467 -0.003477 -0.001793 0.000971 0.004293 0.001401 0.00273 0.006171 -0.00293 0.004474 -0.001019 0.005762 0.003867 -0.001515 0.004773 0.003329 0.003496 0.004912 -0.00101 -0.006249 -0.004341 -0.001887 1.8e-05 -0.004874 0.001841
place 0.005228 -0.005964 -0.004789 0.002838 0.00404 -0.000705 -0.00433 -0.002945 -0.000302 0.005938 -0.004077 0.002245 0.004998 -0.003851 -0.002092 -0.002907 -0.001403 -0.003811 0.005705 -0.003396 0.00578 0.00117 0.006188 -0.000737 0.000145 -0.002383 -0.005888 -0.005413 -0.004848 -0.005765 -0.000239 -0.005748 0.000387 -0.000229 0.003139 -0.006103 0.002978 0.003316 0.003341 -0.006008 -0.003564 -1.9e-05 -0.000888 -0.004522 0.006143 0.002829 0.003533 0.006345 -0.005468 -0.001958 -0.004523 -0.003721 0.000794 0.00598 0.002113 0.00426 -0.005294 0.004006 0.002689 0.005354 0.001133 -0.002346 0.000924 -0.00035 -0.004509 -0.005608 0.004543 -0.004109 0.00201 0.003868 0.001273 0.002179 0.000677 0.004351 -0.001656 0.005312 0.004479 0.00037 -0.005274 -0.002772
time 0.004757 -0.001831 0.00149 -0.004253 0.002418 -0.005135 -0.004788 -0.002729 -0.003381 0.002747 0.005088 -1.4e-05 -0.002884 0.004871 -0.001781 -0.000284 0.000898 -0.003563 0.003653 -0.003065 -0.006191 0.002177 -0.005649 0.001751 -0.005515 0.003046 0.003134 -0.005568 -0.002049 -0.002107 -0.002473 -0.005425 0.002544 0.00285 0.00497 -0.005166 0.005696 -0.005831 0.003628 0.00459 0.00435 -0.004364 0.001742 -0.001564 0.003413 -0.004285 0.003725 0.001057 0.003928 0.005788 -0.003292 -0.000452 0.004347 -0.005374 -0.003347 0.003567 0.006084 3.7e-05 -0.003325 -0.004391 -0.006072 0.00161 0.001582 -0.004943 -0.003737 0.000674 0.005058 0.005665 -0.005232 -0.004092 -0.003582 -0.002489 0.002474 -0.001904 0.002455 -0.002462 0.005168 0.005242 0.000694 0.000944
the 0.006653 -0.001858 -0.000696 0.000274 0.003713 -0.002059 -0.004193 -0.005661 -0.002344 -0.004475 -0.002801 0.005402 0.004003 0.003012 -0.003547 0.002261 -0.005796 5.3e-05 -0.005257 -0.006165 0.001574 0.002328 0.005736 0.002017 -0.004662 0.001266 -0.001127 -0.000242 -0.00088 -0.004964 -3.6e-05 0.003217 0.001778 -0.004657 -1e-06 0.000734 -0.002481 0.002282 -0.002362 0.003062 0.005709 -0.003224 0.001335 -0.005992 -0.000618 -0.006079 0.00194 -0.004919 0.000374 -0.000501 -0.006275 0.002741 0.005312 0.004161 0.005985 0.001656 0.000665 -0.003436 0.003498 -0.000677 0.001803 -0.001826 -0.006202 -0.002549 -0.005154 -0.002366 0.001339 0.000209 0.002994 -0.005744 0.004492 -0.002688 0.000746 0.002007 0.003993 -0.000484 0.001963 -0.001682 0.004454 0.002678
its 0.003218 -0.003615 0.002288 -0.000208 0.000761 0.000992 0.000701 0.004543 -0.002862 -0.002033 0.002567 -0.004546 0.00504 0.0003 -0.00428 -0.004648 -0.005322 -0.003501 0.005009 0.002314 -0.005769 0.00587 0.003958 -0.003597 -0.001991 -0.003205 -0.004854 0.004922 -0.003843 -0.004885 0.005694 0.00325 -0.000466 0.003675 0.00102 -0.004116 0.001706 -0.004283 -0.001075 0.001832 -0.001755 0.00457 -0.000601 -0.000901 0.003201 -0.006427 0.003232 0.002697 -0.002792 -0.002959 0.000962 0.005478 -0.004552 0.005718 0.005326 0.002316 0.000902 -0.003545 -0.004394 -0.003289 0.005333 -0.003998 -0.006099 -0.005106 -0.003522 -0.005488 0.00407 -1.4e-05 0.001653 0.001596 0.000905 -0.005135 -0.003341 0.000282 0.000288 0.004073 -0.00395 -0.002066 0.002794 -0.000457
